{"learner":{"attributes":{"scikit_learn":"{\"_estimator_type\": \"regressor\"}"},"feature_names":["rain_24hr","rain_48hr","rain_72hr","rain_7day","days_since_rain","max_rain_3day","month_sin","month_cos"],"feature_types":["float","float","float","float","int","float","float","float"],"gradient_booster":{"model":{"cats":{"enc":[],"feature_segments":[],"sorted_idx":[]},"gbtree_model_param":{"num_parallel_tree":"1","num_trees":"400"},"iteration_indptr":[0,1,2,3,4,5,6,7,8,9,10,11,12,13,14,15,16,17,18,19,20,21,22,23,24,25,26,27,28,29,30,31,32,33,34,35,36,37,38,39,40,41,42,43,44,45,46,47,48,49,50,51,52,53,54,55,56,57,58,59,60,61,62,63,64,65,66,67,68,69,70,71,72,73,74,75,76,77,78,79,80,81,82,83,84,85,86,87,88,89,90,91,92,93,94,95,96,97,98,99,100,101,102,103,104,105,106,107,108,109,110,111,112,113,114,115,116,117,118,119,120,121,122,123,124,125,126,127,128,129,130,131,132,133,134,135,136,137,138,139,140,141,142,143,144,145,146,147,148,149,150,151,152,153,154,155,156,157,158,159,160,161,162,163,164,165,166,167,168,169,170,171,172,173,174,175,176,177,178,179,180,181,182,183,184,185,186,187,188,189,190,191,192,193,194,195,196,197,198,199,200,201,202,203,204,205,206,207,208,209,210,211,212,213,214,215,216,217,218,219,220,221,222,223,224,225,226,227,228,229,230,231,232,233,234,235,236,237,238,239,240,241,242,243,244,245,246,247,248,249,250,251,252,253,254,255,256,257,258,259,260,261,262,263,264,265,266,267,268,269,270,271,272,273,274,275,276,277,278,279,280,281,282,283,284,285,286,287,288,289,290,291,292,293,294,295,296,297,298,299,300,301,302,303,304,305,306,307,308,309,310,311,312,313,314,315,316,317,318,319,320,321,322,323,324,325,326,327,328,329,330,331,332,333,334,335,336,337,338,339,340,341,342,343,344,345,346,347,348,349,350,351,352,353,354,355,356,357,358,359,360,361,362,363,364,365,366,367,368,369,370,371,372,373,374,375,376,377,378,379,380,381,382,383,384,385,386,387,388,389,390,391,392,393,394,395,396,397,398,399,400],"tree_info":[0,0,0,0,0,0,0,0,0,0,0,0,0,0,0,0,0,0,0,0,0,0,0,0,0,0,0,0,0,0,0,0,0,0,0,0,0,0,0,0,0,0,0,0,0,0,0,0,0,0,0,0,0,0,0,0,0,0,0,0,0,0,0,0,0,0,0,0,0,0,0,0,0,0,0,0,0,0,0,0,0,0,0,0,0,0,0,0,0,0,0,0,0,0,0,0,0,0,0,0,0,0,0,0,0,0,0,0,0,0,0,0,0,0,0,0,0,0,0,0,0,0,0,0,0,0,0,0,0,0,0,0,0,0,0,0,0,0,0,0,0,0,0,0,0,0,0,0,0,0,0,0,0,0,0,0,0,0,0,0,0,0,0,0,0,0,0,0,0,0,0,0,0,0,0,0,0,0,0,0,0,0,0,0,0,0,0,0,0,0,0,0,0,0,0,0,0,0,0,0,0,0,0,0,0,0,0,0,0,0,0,0,0,0,0,0,0,0,0,0,0,0,0,0,0,0,0,0,0,0,0,0,0,0,0,0,0,0,0,0,0,0,0,0,0,0,0,0,0,0,0,0,0,0,0,0,0,0,0,0,0,0,0,0,0,0,0,0,0,0,0,0,0,0,0,0,0,0,0,0,0,0,0,0,0,0,0,0,0,0,0,0,0,0,0,0,0,0,0,0,0,0,0,0,0,0,0,0,0,0,0,0,0,0,0,0,0,0,0,0,0,0,0,0,0,0,0,0,0,0,0,0,0,0,0,0,0,0,0,0,0,0,0,0,0,0,0,0,0,0,0,0,0,0,0,0,0,0,0,0,0,0,0,0,0,0,0,0,0,0,0,0,0,0,0,0,0,0,0,0,0,0,0,0,0,0,0,0,0,0,0,0,0,0,0,0,0,0,0,0],"trees":[{"base_weights":[-7.2704825E-5,-8.373544E-2,1.1988736E0,-2.5352982E-1,1.9219416E-1,8.3360046E-1,1.8464297E0,-3.6065343E-1,-2.2037713E-2,1.0502798E-1,5.042541E-1,3.0747896E-1,1.0066932E0,1.6120526E0,2.6410758E0,-1.332888E-2,-2.1873144E-2,-6.097795E-3,1.1035121E-2,-2.0337726E-3,1.111499E-2,2.2003567E-2,5.206691E-2,-2.0614122E-3,2.3036309E-2,3.4837004E-2,6.379268E-2,5.731663E-2,1.0188564E-1,1.1339442E-1,1.7574178E-1],"categories":[],"categories_nodes":[],"categories_segments":[],"categories_sizes":[],"default_left":[0,0,0,0,0,0,0,0,0,0,0,0,0,0,0,0,0,0,0,0,0,0,0,0,0,0,0,0,0,0,0],"id":0,"left_children":[1,3,5,7,9,11,13,15,17,19,21,23,25,27,29,-1,-1,-1,-1,-1,-1,-1,-1,-1,-1,-1,-1,-1,-1,-1,-1],"loss_changes":[2.1482783E3,9.3801154E2,3.2890015E2,3.0734186E2,2.0740967E2,8.119617E1,8.942456E1,6.110852E1,9.515171E1,1.01898285E2,5.693686E1,1.1935759E1,5.525757E1,7.5175415E1,2.8875366E1,0E0,0E0,0E0,0E0,0E0,0E0,0E0,0E0,0E0,0E0,0E0,0E0,0E0,0E0,0E0,0E0],"parents":[2147483647,0,0,1,1,2,2,3,3,4,4,5,5,6,6,7,7,8,8,9,9,10,10,11,11,12,12,13,13,14,14],"right_children":[2,4,6,8,10,12,14,16,18,20,22,24,26,28,30,-1,-1,-1,-1,-1,-1,-1,-1,-1,-1,-1,-1,-1,-1,-1,-1],"split_conditions":[1.5430442E1,5E-1,6.7222084E1,8.579163E0,3.6096463E0,7.26667E0,3.68333E1,-2.4492937E-16,2.54E0,8.660254E-1,5.2616417E1,6.123234E-17,2.35191E1,1.02616E2,1E0,-1.332888E-2,-2.1873144E-2,-6.097795E-3,1.1035121E-2,-2.0337726E-3,1.111499E-2,2.2003567E-2,5.206691E-2,-2.0614122E-3,2.3036309E-2,3.4837004E-2,6.379268E-2,5.731663E-2,1.0188564E-1,1.1339442E-1,1.7574178E-1],"split_indices":[1,7,3,3,1,0,0,6,0,7,3,7,1,3,6,0,0,0,0,0,0,0,0,0,0,0,0,0,0,0,0],"split_type":[0,0,0,0,0,0,0,0,0,0,0,0,0,0,0,0,0,0,0,0,0,0,0,0,0,0,0,0,0,0,0],"sum_hessian":[2.1415E4,2.0019E4,1.396E3,1.2393E4,7.626E3,8.94E2,5.02E2,8.472E3,3.921E3,5.962E3,1.664E3,2.22E2,6.72E2,3.9E2,1.12E2,3.81E3,4.662E3,2.778E3,1.143E3,2.659E3,3.303E3,1.488E3,1.76E2,6.8E1,1.54E2,3.14E2,3.58E2,1.88E2,2.02E2,8.1E1,3.1E1],"tree_param":{"num_deleted":"0","num_feature":"8","num_nodes":"31","size_leaf_vector":"1"}},{"base_weights":[5.8256323E-3,-9.062567E-2,1.0354023E0,-2.812254E-1,1.3606815E-1,7.457338E-1,1.7153744E0,-3.5976776E-1,-7.7532105E-2,6.11899E-2,4.4649976E-1,5.4354185E-1,1.0669408E0,1.264206E0,2.07779E0,-1.9619754E-2,-8.87989E-3,-8.092124E-3,2.0848734E-3,-3.6277312E-3,1.0851036E-2,2.066969E-2,5.5321522E-2,8.616427E-3,3.0776298E-2,3.3926908E-2,5.8610935E-2,1.0825985E-1,5.721665E-2,8.861998E-2,1.4625688E-1],"categories":[],"categories_nodes":[],"categories_segments":[],"categories_sizes":[],"default_left":[0,0,0,0,0,0,0,0,0,0,0,0,0,0,0,0,0,0,0,0,0,0,0,0,0,0,0,0,0,0,0],"id":1,"left_children":[1,3,5,7,9,11,13,15,17,19,21,23,25,27,29,-1,-1,-1,-1,-1,-1,-1,-1,-1,-1,-1,-1,-1,-1,-1,-1],"loss_changes":[2.141287E3,8.51923E2,3.6251794E2,1.7133258E2,2.0931332E2,8.36543E1,8.746753E1,4.5875244E1,2.9982677E1,1.5126265E2,3.777597E1,2.1217651E1,1.964972E1,2.4307434E1,7.348193E1,0E0,0E0,0E0,0E0,0E0,0E0,0E0,0E0,0E0,0E0,0E0,0E0,0E0,0E0,0E0,0E0],"parents":[2147483647,0,0,1,1,2,2,3,3,4,4,5,5,6,6,7,7,8,8,9,9,10,10,11,11,12,12,13,13,14,14],"right_children":[2,4,6,8,10,12,14,16,18,20,22,24,26,28,30,-1,-1,-1,-1,-1,-1,-1,-1,-1,-1,-1,-1,-1,-1,-1,-1],"split_conditions":[1.2045328E1,6.123234E-17,6.7222084E1,2E0,3.6096463E0,2.1422092E1,3.8050755E1,-1.8369701E-16,1.4240413E1,8.660254E-1,8.382E1,-5E-1,-1.8369701E-16,1.42667E1,1.621333E2,-1.9619754E-2,-8.87989E-3,-8.092124E-3,2.0848734E-3,-3.6277312E-3,1.0851036E-2,2.066969E-2,5.5321522E-2,8.616427E-3,3.0776298E-2,3.3926908E-2,5.8610935E-2,1.0825985E-1,5.721665E-2,8.861998E-2,1.4625688E-1],"split_indices":[1,7,3,5,1,1,1,7,3,7,3,7,7,5,3,0,0,0,0,0,0,0,0,0,0,0,0,0,0,0,0],"split_type":[0,0,0,0,0,0,0,0,0,0,0,0,0,0,0,0,0,0,0,0,0,0,0,0,0,0,0,0,0,0,0],"sum_hessian":[2.1561E4,1.9715E4,1.846E3,1.071E4,9.005E3,1.296E3,5.5E2,7.729E3,2.981E3,7.256E3,1.749E3,7.97E2,4.99E2,2.47E2,3.03E2,6.554E3,1.175E3,1.746E3,1.235E3,3.905E3,3.351E3,1.667E3,8.2E1,1.3E2,6.67E2,1.08E2,3.91E2,2.7E1,2.2E2,2.25E2,7.8E1],"tree_param":{"num_deleted":"0","num_feature":"8","num_nodes":"31","size_leaf_vector":"1"}},{"base_weights":[6.618738E-3,-8.334383E-2,9.936402E-1,-2.3833503E-1,1.7027038E-1,7.875522E-1,1.9636223E0,-2.8936735E-1,1.6994874E-1,9.589786E-2,4.7352532E-1,6.500052E-1,1.6531953E0,1.2693573E0,2.4434638E0,-1.5910307E-2,-8.276064E-4,2.2136997E-3,2.262677E-2,-1.8657445E-3,1.0103961E-2,2.1693444E-2,5.5264454E-2,2.1486646E-2,4.031091E-2,7.541607E-2,1.23271585E-1,8.847182E-2,3.9369088E-2,1.2958656E-1,5.49042E-2],"categories":[],"categories_nodes":[],"categories_segments":[],"categories_sizes":[],"default_left":[0,0,0,0,0,0,0,0,0,0,0,0,0,0,0,0,0,0,0,0,0,0,0,0,0,0,0,0,0,0,0],"id":2,"left_children":[1,3,5,7,9,11,13,15,17,19,21,23,25,27,29,-1,-1,-1,-1,-1,-1,-1,-1,-1,-1,-1,-1,-1,-1,-1,-1],"loss_changes":[1.9027817E3,7.7200977E2,3.5627734E2,2.5403595E2,1.6798067E2,1.7490582E2,1.0117041E2,8.524866E1,4.8101444E1,8.464949E1,3.6273956E1,4.35943E1,2.0051025E1,2.994014E1,3.3857544E1,0E0,0E0,0E0,0E0,0E0,0E0,0E0,0E0,0E0,0E0,0E0,0E0,0E0,0E0,0E0,0E0],"parents":[2147483647,0,0,1,1,2,2,3,3,4,4,5,5,6,6,7,7,8,8,9,9,10,10,11,11,12,12,13,13,14,14],"right_children":[2,4,6,8,10,12,14,16,18,20,22,24,26,28,30,-1,-1,-1,-1,-1,-1,-1,-1,-1,-1,-1,-1,-1,-1,-1,-1],"split_conditions":[1.246666E1,5E-1,2.39E1,2.46667E0,3.6096463E0,1.02616E2,6.7222084E1,1.8793924E1,-1.8369701E-16,8.660254E-1,7.0800995E1,7.86667E0,1.8521353E1,3.07583E1,1E0,-1.5910307E-2,-8.276064E-4,2.2136997E-3,2.262677E-2,-1.8657445E-3,1.0103961E-2,2.1693444E-2,5.5264454E-2,2.1486646E-2,4.031091E-2,7.541607E-2,1.23271585E-1,8.847182E-2,3.9369088E-2,1.2958656E-1,5.49042E-2],"split_indices":[1,7,0,0,1,3,3,3,7,7,3,0,0,0,7,0,0,0,0,0,0,0,0,0,0,0,0,0,0,0,0],"split_type":[0,0,0,0,0,0,0,0,0,0,0,0,0,0,0,0,0,0,0,0,0,0,0,0,0,0,0,0,0,0,0],"sum_hessian":[2.1427E4,1.9638E4,1.789E3,1.2189E4,7.449E3,1.477E3,3.12E2,1.0835E4,1.354E3,5.983E3,1.466E3,1.276E3,2.01E2,1.29E2,1.83E2,9.799E3,1.036E3,9.38E2,4.16E2,2.654E3,3.329E3,1.381E3,8.5E1,5.31E2,7.45E2,1.73E2,2.8E1,6.2E1,6.7E1,1.64E2,1.9E1],"tree_param":{"num_deleted":"0","num_feature":"8","num_nodes":"31","size_leaf_vector":"1"}},{"base_weights":[-2.8969592E-3,-7.475335E-2,1.0587952E0,-2.847132E-1,9.764371E-2,8.369126E-1,1.811493E0,-3.3619374E-1,1.5810931E-2,2.296905E-2,4.0668675E-1,4.2976204E-1,9.5528316E-1,1.4160719E0,2.3822246E0,-1.2670356E-2,-1.9759752E-2,-1.0761968E-3,2.5571594E-2,-4.2352495E-3,9.747894E-3,1.51471E-2,2.680388E-2,4.4522326E-2,1.5915615E-2,3.3444036E-2,6.275753E-2,8.809932E-2,4.7001716E-2,5.9525955E-2,1.4348769E-1],"categories":[],"categories_nodes":[],"categories_segments":[],"categories_sizes":[],"default_left":[0,0,0,0,0,0,0,0,0,0,0,0,0,0,0,0,0,0,0,0,0,0,0,0,0,0,0,0,0,0,0],"id":3,"left_children":[1,3,5,7,9,11,13,15,17,19,21,23,25,27,29,-1,-1,-1,-1,-1,-1,-1,-1,-1,-1,-1,-1,-1,-1,-1,-1],"loss_changes":[1.6379355E3,7.2790247E2,2.257854E2,1.4028217E2,2.5483751E2,5.033844E1,6.636157E1,3.7710938E1,2.4565742E1,1.6474062E2,2.8684967E1,1.1987583E1,6.915491E1,2.8807281E1,6.92074E1,0E0,0E0,0E0,0E0,0E0,0E0,0E0,0E0,0E0,0E0,0E0,0E0,0E0,0E0,0E0,0E0],"parents":[2147483647,0,0,1,1,2,2,3,3,4,4,5,5,6,6,7,7,8,8,9,9,10,10,11,11,12,12,13,13,14,14],"right_children":[2,4,6,8,10,12,14,16,18,20,22,24,26,28,30,-1,-1,-1,-1,-1,-1,-1,-1,-1,-1,-1,-1,-1,-1,-1,-1],"split_conditions":[1.6002E1,-1.8369701E-16,2.39E1,1.98333E0,4.1786942E0,-1.8369701E-16,8.660254E-1,-2.4492937E-16,8.16667E0,8.660254E-1,8.660254E-1,1.726667E1,1.07958E1,-2.4492937E-16,4.62E1,-1.2670356E-2,-1.9759752E-2,-1.0761968E-3,2.5571594E-2,-4.2352495E-3,9.747894E-3,1.51471E-2,2.680388E-2,4.4522326E-2,1.5915615E-2,3.3444036E-2,6.275753E-2,8.809932E-2,4.7001716E-2,5.9525955E-2,1.4348769E-1],"split_indices":[1,7,0,0,1,7,6,6,0,7,7,1,0,6,1,0,0,0,0,0,0,0,0,0,0,0,0,0,0,0,0],"split_type":[0,0,0,0,0,0,0,0,0,0,0,0,0,0,0,0,0,0,0,0,0,0,0,0,0,0,0,0,0,0,0],"sum_hessian":[2.1468E4,2.0108E4,1.36E3,9.066E3,1.1042E4,1.052E3,3.08E2,7.74E3,1.326E3,8.894E3,2.148E3,2.38E2,8.14E2,1.84E2,1.24E2,3.223E3,4.517E3,1.234E3,9.2E1,5.47E3,3.424E3,1.194E3,9.54E2,4.5E1,1.93E2,4.18E2,3.96E2,1.05E2,7.9E1,3.7E1,8.7E1],"tree_param":{"num_deleted":"0","num_feature":"8","num_nodes":"31","size_leaf_vector":"1"}},{"base_weights":[2.4560187E-4,-6.6807754E-2,1.0279032E0,-9.951631E-2,5.6677294E-1,7.710549E-1,1.705696E0,-1.9003664E-1,2.944733E-2,3.1249055E-1,8.8799167E-1,5.740782E-1,1.0959213E0,1.4194728E0,2.3187728E0,-5.0952816E-3,-1.4068685E-2,-1.0384617E-3,9.381625E-3,2.2524705E-2,1.4350213E-3,2.967192E-2,5.7705205E-2,6.328252E-2,2.5833005E-2,3.20451E-2,6.4718E-2,5.4707743E-2,9.84356E-2,1.5345488E-1,9.24439E-2],"categories":[],"categories_nodes":[],"categories_segments":[],"categories_sizes":[],"default_left":[0,0,0,0,0,0,0,0,0,0,0,0,0,0,0,0,0,0,0,0,0,0,0,0,0,0,0,0,0,0,0],"id":4,"left_children":[1,3,5,7,9,11,13,15,17,19,21,23,25,27,29,-1,-1,-1,-1,-1,-1,-1,-1,-1,-1,-1,-1,-1,-1,-1,-1],"loss_changes":[1.4771093E3,4.1707556E2,2.272649E2,2.23396E2,8.042261E1,6.0418335E1,5.988037E1,9.048132E1,6.2702072E1,2.1644787E1,3.3490692E1,2.3012527E1,3.1585754E1,4.2157898E1,3.4166443E1,0E0,0E0,0E0,0E0,0E0,0E0,0E0,0E0,0E0,0E0,0E0,0E0,0E0,0E0,0E0,0E0],"parents":[2147483647,0,0,1,1,2,2,3,3,4,4,5,5,6,6,7,7,8,8,9,9,10,10,11,11,12,12,13,13,14,14],"right_children":[2,4,6,8,10,12,14,16,18,20,22,24,26,28,30,-1,-1,-1,-1,-1,-1,-1,-1,-1,-1,-1,-1,-1,-1,-1,-1],"split_conditions":[7.86667E0,4.760306E1,6.7222084E1,6.599997E0,8.382E1,2.35191E1,3.68333E1,1.2246469E-16,2.54E0,6.290003E1,9.45833E-1,1.1895171E1,1.3168427E1,1.26746E2,7.8994E1,-5.0952816E-3,-1.4068685E-2,-1.0384617E-3,9.381625E-3,2.2524705E-2,1.4350213E-3,2.967192E-2,5.7705205E-2,6.328252E-2,2.5833005E-2,3.20451E-2,6.4718E-2,5.4707743E-2,9.84356E-2,1.5345488E-1,9.24439E-2],"split_indices":[0,3,3,3,3,1,0,6,0,3,0,3,0,3,2,0,0,0,0,0,0,0,0,0,0,0,0,0,0,0,0],"split_type":[0,0,0,0,0,0,0,0,0,0,0,0,0,0,0,0,0,0,0,0,0,0,0,0,0,0,0,0,0,0,0],"sum_hessian":[2.1434E4,2.0122E4,1.312E3,1.9135E4,9.87E2,9.53E2,3.59E2,1.1243E4,7.892E3,5.52E2,4.35E2,5.95E2,3.58E2,2.47E2,1.12E2,5.723E3,5.52E3,5.991E3,1.901E3,3.71E2,1.81E2,2.08E2,2.27E2,4.4E1,5.51E2,1.1E2,2.48E2,1.57E2,9E1,4.1E1,7.1E1],"tree_param":{"num_deleted":"0","num_feature":"8","num_nodes":"31","size_leaf_vector":"1"}},{"base_weights":[5.609705E-4,-7.551607E-2,8.262646E-1,-2.7086976E-1,8.5708834E-2,5.572242E-1,1.4000914E0,-3.2514915E-1,-1.2176135E-1,3.2963913E-2,4.9564424E-1,2.5972737E-2,6.7648053E-1,9.7569567E-1,1.7626715E0,-1.25594055E-2,-1.884273E-2,-7.88764E-3,1.5306248E-2,-3.0729654E-3,9.095056E-3,1.7362172E-2,4.4176016E-2,-1.6690409E-2,1.3814724E-2,2.468956E-2,4.3563034E-2,4.0512405E-2,7.575043E-2,7.629801E-2,1.17729746E-1],"categories":[],"categories_nodes":[],"categories_segments":[],"categories_sizes":[],"default_left":[0,0,0,0,0,0,0,0,0,0,0,0,0,0,0,0,0,0,0,0,0,0,0,0,0,0,0,0,0,0,0],"id":5,"left_children":[1,3,5,7,9,11,13,15,17,19,21,23,25,27,29,-1,-1,-1,-1,-1,-1,-1,-1,-1,-1,-1,-1,-1,-1,-1,-1],"loss_changes":[1.3522003E3,6.208071E2,2.795786E2,7.208978E1,2.3347977E2,7.8416016E1,8.7375244E1,2.4888733E1,3.6700874E1,1.3458128E2,7.0550934E1,2.0626133E1,3.554544E1,2.277481E1,3.9982788E1,0E0,0E0,0E0,0E0,0E0,0E0,0E0,0E0,0E0,0E0,0E0,0E0,0E0,0E0,0E0,0E0],"parents":[2147483647,0,0,1,1,2,2,3,3,4,4,5,5,6,6,7,7,8,8,9,9,10,10,11,11,12,12,13,13,14,14],"right_children":[2,4,6,8,10,12,14,16,18,20,22,24,26,28,30,-1,-1,-1,-1,-1,-1,-1,-1,-1,-1,-1,-1,-1,-1,-1,-1],"split_conditions":[5.90669E0,-1.8369701E-16,3.3951675E1,2E0,3.434805E1,-5E-1,1.8521353E1,-2.4492937E-16,4.2029526E1,8.660254E-1,8.382E1,2.04E1,9.56667E0,1.12133224E2,1.26746E2,-1.25594055E-2,-1.884273E-2,-7.88764E-3,1.5306248E-2,-3.0729654E-3,9.095056E-3,1.7362172E-2,4.4176016E-2,-1.6690409E-2,1.3814724E-2,2.468956E-2,4.3563034E-2,4.0512405E-2,7.575043E-2,7.629801E-2,1.17729746E-1],"split_indices":[0,7,2,5,3,7,0,6,3,7,3,3,0,3,3,0,0,0,0,0,0,0,0,0,0,0,0,0,0,0,0],"split_type":[0,0,0,0,0,0,0,0,0,0,0,0,0,0,0,0,0,0,0,0,0,0,0,0,0,0,0,0,0,0,0],"sum_hessian":[2.1524E4,1.9709E4,1.815E3,8.911E3,1.0798E4,1.237E3,5.78E2,6.532E3,2.379E3,9.568E3,1.23E3,2.27E2,1.01E3,2.68E2,3.1E2,2.69E3,3.842E3,2.195E3,1.84E2,5.856E3,3.712E3,8.91E2,3.39E2,9.3E1,1.34E2,5.23E2,4.87E2,2.07E2,6.1E1,2.24E2,8.6E1],"tree_param":{"num_deleted":"0","num_feature":"8","num_nodes":"31","size_leaf_vector":"1"}},{"base_weights":[-5.3481623E-3,-6.760067E-2,9.212069E-1,-2.5943974E-1,9.10636E-2,7.021826E-1,1.6961774E0,-3.075071E-1,2.049632E-2,2.8444547E-2,3.518199E-1,2.0211442E-1,8.488667E-1,1.1428887E0,2.1372278E0,-1.6182294E-2,-8.922602E-3,-3.5824964E-4,3.0731637E-2,-3.114976E-3,8.53208E-3,1.2552162E-2,2.3570424E-2,5.8392365E-2,7.5199953E-3,2.8334608E-2,5.454089E-2,7.8528576E-2,2.338482E-2,5.7271104E-2,1.141927E-1],"categories":[],"categories_nodes":[],"categories_segments":[],"categories_sizes":[],"default_left":[0,0,0,0,0,0,0,0,0,0,0,0,0,0,0,0,0,0,0,0,0,0,0,0,0,0,0,0,0,0,0],"id":6,"left_children":[1,3,5,7,9,11,13,15,17,19,21,23,25,27,29,-1,-1,-1,-1,-1,-1,-1,-1,-1,-1,-1,-1,-1,-1,-1,-1],"loss_changes":[1.2295195E3,6.079924E2,2.2659656E2,1.2167346E2,1.7850743E2,7.6701355E1,6.954578E1,1.6015198E1,2.1796675E1,1.1378113E2,2.5395172E1,1.1760591E1,5.4682556E1,3.76716E1,2.1088196E1,0E0,0E0,0E0,0E0,0E0,0E0,0E0,0E0,0E0,0E0,0E0,0E0,0E0,0E0,0E0,0E0],"parents":[2147483647,0,0,1,1,2,2,3,3,4,4,5,5,6,6,7,7,8,8,9,9,10,10,11,11,12,12,13,13,14,14],"right_children":[2,4,6,8,10,12,14,16,18,20,22,24,26,28,30,-1,-1,-1,-1,-1,-1,-1,-1,-1,-1,-1,-1,-1,-1,-1,-1],"split_conditions":[1.6002E1,-1.8369701E-16,2.39E1,1.98333E0,4.1786942E0,-1.8369701E-16,5.75375E1,4.53333E0,9.56667E0,8.660254E-1,8.660254E-1,9.4559965E0,9.56667E0,3.37056E1,-1.8369701E-16,-1.6182294E-2,-8.922602E-3,-3.5824964E-4,3.0731637E-2,-3.114976E-3,8.53208E-3,1.2552162E-2,2.3570424E-2,5.8392365E-2,7.5199953E-3,2.8334608E-2,5.454089E-2,7.8528576E-2,2.338482E-2,5.7271104E-2,1.141927E-1],"split_indices":[1,7,0,0,1,7,2,2,0,7,7,5,0,5,7,0,0,0,0,0,0,0,0,0,0,0,0,0,0,0,0],"split_type":[0,0,0,0,0,0,0,0,0,0,0,0,0,0,0,0,0,0,0,0,0,0,0,0,0,0,0,0,0,0,0],"sum_hessian":[2.1314E4,1.9973E4,1.341E3,9.041E3,1.0932E4,1.047E3,2.94E2,7.716E3,1.325E3,8.816E3,2.116E3,2.38E2,8.09E2,1.32E2,1.62E2,6.857E3,8.59E2,1.267E3,5.8E1,5.382E3,3.434E3,1.15E3,9.66E2,1.1E1,2.27E2,3.75E2,4.34E2,8E1,5.2E1,2.2E1,1.4E2],"tree_param":{"num_deleted":"0","num_feature":"8","num_nodes":"31","size_leaf_vector":"1"}},{"base_weights":[-7.6478333E-3,-5.738173E-2,1.078969E0,-2.3013012E-1,7.9837896E-2,7.270621E-1,1.4197142E0,-2.7863243E-1,3.6675915E-2,2.4855379E-2,3.7356338E-1,1.7027387E-1,8.628079E-1,1.2085663E0,2.2407193E0,-1.4271754E-2,1.5532212E-2,-4.2971192E-4,1.7412227E-2,-3.4641777E-3,8.524861E-3,7.591007E-2,1.7730454E-2,2.1608958E-2,-1.927015E-2,3.739695E-2,7.776552E-2,1.0461106E-1,5.3878166E-2,-3.2206338E-2,1.1389332E-1],"categories":[],"categories_nodes":[],"categories_segments":[],"categories_sizes":[],"default_left":[0,0,0,0,0,0,0,0,0,0,0,0,0,0,0,0,0,0,0,0,0,0,0,0,0,0,0,0,0,0,0],"id":7,"left_children":[1,3,5,7,9,11,13,15,17,19,21,23,25,27,29,-1,-1,-1,-1,-1,-1,-1,-1,-1,-1,-1,-1,-1,-1,-1,-1],"loss_changes":[1.1569865E3,4.852962E2,1.11323975E2,1.1729193E2,1.8425955E2,3.484738E1,7.963489E1,3.0830933E1,1.967913E1,1.3179779E2,3.8492386E1,1.3555756E1,2.8428253E1,4.1734802E1,1.1754944E1,0E0,0E0,0E0,0E0,0E0,0E0,0E0,0E0,0E0,0E0,0E0,0E0,0E0,0E0,0E0,0E0],"parents":[2147483647,0,0,1,1,2,2,3,3,4,4,5,5,6,6,7,7,8,8,9,9,10,10,11,11,12,12,13,13,14,14],"right_children":[2,4,6,8,10,12,14,16,18,20,22,24,26,28,30,-1,-1,-1,-1,-1,-1,-1,-1,-1,-1,-1,-1,-1,-1,-1,-1],"split_conditions":[2.1422092E1,-1.8369701E-16,1.60871E1,2E0,2.54E0,6.123234E-17,1.26746E2,5.2616417E1,7.86667E0,8.660254E-1,2.6E0,1.0282941E1,1.397E2,2.03333E1,3.24E1,-1.4271754E-2,1.5532212E-2,-4.2971192E-4,1.7412227E-2,-3.4641777E-3,8.524861E-3,7.591007E-2,1.7730454E-2,2.1608958E-2,-1.927015E-2,3.739695E-2,7.776552E-2,1.0461106E-1,5.3878166E-2,-3.2206338E-2,1.1389332E-1],"split_indices":[1,7,0,0,0,7,3,3,0,7,5,0,3,5,1,0,0,0,0,0,0,0,0,0,0,0,0,0,0,0,0],"split_type":[0,0,0,0,0,0,0,0,0,0,0,0,0,0,0,0,0,0,0,0,0,0,0,0,0,0,0,0,0,0,0],"sum_hessian":[2.1407E4,2.0471E4,9.36E2,9.062E3,1.1409E4,4.62E2,4.74E2,7.668E3,1.394E3,9.611E3,1.798E3,9.1E1,3.71E2,3.79E2,9.5E1,7.581E3,8.7E1,1.218E3,1.76E2,5.838E3,3.773E3,2.8E1,1.77E3,6.2E1,2.9E1,3.2E2,5.1E1,4.7E1,3.32E2,1E0,9.4E1],"tree_param":{"num_deleted":"0","num_feature":"8","num_nodes":"31","size_leaf_vector":"1"}},{"base_weights":[-9.2463905E-4,-4.896768E-2,1.0305146E0,-2.0143968E-1,1.2435172E-1,8.080882E-1,1.4892633E0,-2.605965E-1,-2.6177786E-2,5.1373206E-2,3.8830227E-1,4.4429243E-1,9.958023E-1,9.576198E-1,1.8022171E0,-9.672455E-3,-1.6399698E-2,-2.545838E-3,3.0480191E-2,-2.5739158E-3,8.451033E-3,1.7651629E-2,3.9578237E-2,1.9772623E-2,7.754032E-2,8.130103E-3,5.3634524E-2,3.3495333E-2,6.716118E-2,1.102378E-1,7.532593E-2],"categories":[],"categories_nodes":[],"categories_segments":[],"categories_sizes":[],"default_left":[0,0,0,0,0,0,0,0,0,0,0,0,0,0,0,0,0,0,0,0,0,0,0,0,0,0,0,0,0,0,0],"id":8,"left_children":[1,3,5,7,9,11,13,15,17,19,21,23,25,27,29,-1,-1,-1,-1,-1,-1,-1,-1,-1,-1,-1,-1,-1,-1,-1,-1],"loss_changes":[1.0610896E3,5.4070825E2,9.603851E1,1.12848145E2,1.8443987E2,4.353607E1,4.985193E1,3.6765625E1,4.325319E1,9.079665E1,2.9218933E1,1.133004E1,2.6988403E1,1.2080528E1,1.9770386E1,0E0,0E0,0E0,0E0,0E0,0E0,0E0,0E0,0E0,0E0,0E0,0E0,0E0,0E0,0E0,0E0],"parents":[2147483647,0,0,1,1,2,2,3,3,4,4,5,5,6,6,7,7,8,8,9,9,10,10,11,11,12,12,13,13,14,14],"right_children":[2,4,6,8,10,12,14,16,18,20,22,24,26,28,30,-1,-1,-1,-1,-1,-1,-1,-1,-1,-1,-1,-1,-1,-1,-1,-1],"split_conditions":[2.1422092E1,6.123234E-17,9E1,2.499997E0,4.1786942E0,1.13E1,1.3168427E1,-2.4492937E-16,5.2616417E1,8.660254E-1,7.0800995E1,8.382E1,-5E-1,1.397E2,1.2246469E-16,-9.672455E-3,-1.6399698E-2,-2.545838E-3,3.0480191E-2,-2.5739158E-3,8.451033E-3,1.7651629E-2,3.9578237E-2,1.9772623E-2,7.754032E-2,8.130103E-3,5.3634524E-2,3.3495333E-2,6.716118E-2,1.102378E-1,7.532593E-2],"split_indices":[1,7,3,1,1,0,0,6,3,7,3,3,7,3,6,0,0,0,0,0,0,0,0,0,0,0,0,0,0,0,0],"split_type":[0,0,0,0,0,0,0,0,0,0,0,0,0,0,0,0,0,0,0,0,0,0,0,0,0,0,0,0,0,0,0],"sum_hessian":[2.1411E4,2.0459E4,9.52E2,1.0884E4,9.575E3,6.43E2,3.09E2,8.137E3,2.747E3,7.502E3,2.073E3,2.2E2,4.23E2,1.16E2,1.93E2,4.078E3,4.059E3,2.645E3,1.02E2,4.003E3,3.499E3,1.908E3,1.65E2,2.12E2,8E0,3.6E1,3.87E2,6.8E1,4.8E1,7.9E1,1.14E2],"tree_param":{"num_deleted":"0","num_feature":"8","num_nodes":"31","size_leaf_vector":"1"}},{"base_weights":[-2.9247843E-3,-5.8937013E-2,7.887749E-1,-1.416209E-1,1.0460405E-1,6.516088E-1,1.6743665E0,-7.4400425E-2,-2.1165277E-1,7.386306E-2,6.138098E-1,4.1995886E-1,8.5290986E-1,1.1421368E0,1.7879113E0,-4.1637802E-3,2.3972938E-2,-1.2297728E-2,-4.4204565E-3,1.1587505E-3,1.0087044E-2,3.687602E-2,1.7678035E-2,1.10516865E-2,2.7462691E-2,1.6990553E-1,4.140518E-2,7.055841E-2,8.912322E-3,6.826561E-2,1.03662804E-1],"categories":[],"categories_nodes":[],"categories_segments":[],"categories_sizes":[],"default_left":[0,0,0,0,0,0,0,0,0,0,0,0,0,0,0,0,0,0,0,0,0,0,0,0,0,0,0,0,0,0,0],"id":9,"left_children":[1,3,5,7,9,11,13,15,17,19,21,23,25,27,29,-1,-1,-1,-1,-1,-1,-1,-1,-1,-1,-1,-1,-1,-1,-1,-1],"loss_changes":[9.4898224E2,2.702697E2,1.7067206E2,6.2477325E1,1.0502089E2,5.681189E1,9.379578E0,3.3343086E1,2.746109E1,4.1032085E1,1.2037949E1,1.4590446E1,3.854077E1,9.083866E0,1.5739655E1,0E0,0E0,0E0,0E0,0E0,0E0,0E0,0E0,0E0,0E0,0E0,0E0,0E0,0E0,0E0,0E0],"parents":[2147483647,0,0,1,1,2,2,3,3,4,4,5,5,6,6,7,7,8,8,9,9,10,10,11,11,12,12,13,13,14,14],"right_children":[2,4,6,8,10,12,14,16,18,20,22,24,26,28,30,-1,-1,-1,-1,-1,-1,-1,-1,-1,-1,-1,-1,-1,-1,-1,-1],"split_conditions":[1.5430442E1,9.652E0,1.26746E2,1.2246469E-16,7.0800995E1,3.02667E1,3.24E1,4.9E0,5.4378734E0,6.053709E0,8.660254E-1,-2.4492937E-16,3.1169455E1,2.6722868E1,1.621333E2,-4.1637802E-3,2.3972938E-2,-1.2297728E-2,-4.4204565E-3,1.1587505E-3,1.0087044E-2,3.687602E-2,1.7678035E-2,1.10516865E-2,2.7462691E-2,1.6990553E-1,4.140518E-2,7.055841E-2,8.912322E-3,6.826561E-2,1.03662804E-1],"split_indices":[1,3,3,6,3,2,1,5,3,1,6,6,3,1,3,0,0,0,0,0,0,0,0,0,0,0,0,0,0,0,0],"split_type":[0,0,0,0,0,0,0,0,0,0,0,0,0,0,0,0,0,0,0,0,0,0,0,0,0,0,0,0,0,0,0],"sum_hessian":[2.1398E4,1.9985E4,1.413E3,1.3274E4,6.711E3,1.225E3,1.88E2,6.774E3,6.5E3,6.33E3,3.81E2,5.71E2,6.54E2,3.5E1,1.53E2,6.668E3,1.06E2,5.084E3,1.416E3,4.534E3,1.796E3,2.57E2,1.24E2,2.26E2,3.45E2,5E0,6.49E2,2.7E1,8E0,6.4E1,8.9E1],"tree_param":{"num_deleted":"0","num_feature":"8","num_nodes":"31","size_leaf_vector":"1"}},{"base_weights":[8.593528E-5,-4.9665086E-2,7.7453184E-1,-1.6314663E-1,1.3011436E-1,4.484033E-1,1.2593879E0,-1.9834876E-1,8.180079E-2,1.0388245E-1,8.2985425E-1,-1.4804763E-1,5.6514883E-1,1.0950125E0,2.118025E0,-1.0816266E-2,-2.0473688E-3,-1.5528685E-3,1.479648E-2,-7.7237365E-7,9.173766E-3,3.0059284E-2,5.4453906E-2,-1.817671E-2,7.4995197E-3,7.784983E-2,2.5796354E-2,-3.7655886E-2,5.678649E-2,1.2448669E-3,1.112523E-1],"categories":[],"categories_nodes":[],"categories_segments":[],"categories_sizes":[],"default_left":[0,0,0,0,0,0,0,0,0,0,0,0,0,0,0,0,0,0,0,0,0,0,0,0,0,0,0,0,0,0,0],"id":10,"left_children":[1,3,5,7,9,11,13,15,17,19,21,23,25,27,29,-1,-1,-1,-1,-1,-1,-1,-1,-1,-1,-1,-1,-1,-1,-1,-1],"loss_changes":[8.2148676E2,4.0874786E2,2.0294263E2,1.0591989E2,1.4222409E2,5.377069E1,7.0649536E1,3.0377502E1,3.7321777E1,6.1806473E1,1.5942642E1,8.210873E0,3.0685913E1,3.3664673E1,1.8313263E1,0E0,0E0,0E0,0E0,0E0,0E0,0E0,0E0,0E0,0E0,0E0,0E0,0E0,0E0,0E0,0E0],"parents":[2147483647,0,0,1,1,2,2,3,3,4,4,5,5,6,6,7,7,8,8,9,9,10,10,11,11,12,12,13,13,14,14],"right_children":[2,4,6,8,10,12,14,16,18,20,22,24,26,28,30,-1,-1,-1,-1,-1,-1,-1,-1,-1,-1,-1,-1,-1,-1,-1,-1],"split_conditions":[7.86667E0,5E-1,3.3951675E1,2.006667E1,8.382E1,-5E-1,1.621333E2,2.062519E0,2.54E0,8.660254E-1,1.10833E0,2.062478E1,1.1895171E1,3.6816463E1,2.25E1,-1.0816266E-2,-2.0473688E-3,-1.5528685E-3,1.479648E-2,-7.7237365E-7,9.173766E-3,3.0059284E-2,5.4453906E-2,-1.817671E-2,7.4995197E-3,7.784983E-2,2.5796354E-2,-3.7655886E-2,5.678649E-2,1.2448669E-3,1.112523E-1],"split_indices":[0,7,2,3,3,7,3,0,0,7,0,2,3,3,5,0,0,0,0,0,0,0,0,0,0,0,0,0,0,0,0],"split_type":[0,0,0,0,0,0,0,0,0,0,0,0,0,0,0,0,0,0,0,0,0,0,0,0,0,0,0,0,0,0,0],"sum_hessian":[2.1319E4,2.0033E4,1.286E3,1.2281E4,7.752E3,7.7E2,5.16E2,1.0738E4,1.543E3,7.473E3,2.79E2,1.26E2,6.44E2,4.35E2,8.1E1,9.637E3,1.101E3,1.011E3,5.32E2,3.242E3,4.231E3,1.5E2,1.29E2,7.3E1,5.3E1,2.9E1,6.15E2,9E0,4.26E2,4E0,7.7E1],"tree_param":{"num_deleted":"0","num_feature":"8","num_nodes":"31","size_leaf_vector":"1"}},{"base_weights":[-4.012842E-3,-5.3418506E-2,7.550857E-1,-1.8513444E-1,9.8459296E-2,5.129963E-1,1.215964E0,-2.1759558E-1,3.385987E-2,7.462271E-2,7.301902E-1,4.182274E-1,9.526906E-1,1.0834757E0,2.0387423E0,-7.945149E-3,-1.389684E-2,-4.4260087E-4,2.8002024E-2,-5.159794E-4,8.540209E-3,2.3869695E-2,5.1102947E-2,5.700741E-3,2.417407E-2,5.8206696E-2,1.6841607E-2,4.873667E-3,5.859157E-2,3.2296624E-2,1.0894705E-1],"categories":[],"categories_nodes":[],"categories_segments":[],"categories_sizes":[],"default_left":[0,0,0,0,0,0,0,0,0,0,0,0,0,0,0,0,0,0,0,0,0,0,0,0,0,0,0,0,0,0,0],"id":11,"left_children":[1,3,5,7,9,11,13,15,17,19,21,23,25,27,29,-1,-1,-1,-1,-1,-1,-1,-1,-1,-1,-1,-1,-1,-1,-1,-1],"loss_changes":[7.996957E2,4.0051288E2,1.4475684E2,7.6227936E1,1.3997272E2,3.5270508E1,4.6626892E1,3.302713E1,3.113168E1,7.3220184E1,2.4450867E1,1.3959732E1,1.9270966E1,3.3687897E1,1.0504013E1,0E0,0E0,0E0,0E0,0E0,0E0,0E0,0E0,0E0,0E0,0E0,0E0,0E0,0E0,0E0,0E0],"parents":[2147483647,0,0,1,1,2,2,3,3,4,4,5,5,6,6,7,7,8,8,9,9,10,10,11,11,12,12,13,13,14,14],"right_children":[2,4,6,8,10,12,14,16,18,20,22,24,26,28,30,-1,-1,-1,-1,-1,-1,-1,-1,-1,-1,-1,-1,-1,-1,-1,-1],"split_conditions":[7.86667E0,6.123234E-17,1.8521353E1,2.13333E0,8.382E1,7.0800995E1,1.621333E2,-2.4492937E-16,4.306664E1,8.660254E-1,1.10833E0,-5E-1,1.5E1,-5E-1,-1.8369701E-16,-7.945149E-3,-1.389684E-2,-4.4260087E-4,2.8002024E-2,-5.159794E-4,8.540209E-3,2.3869695E-2,5.1102947E-2,5.700741E-3,2.417407E-2,5.8206696E-2,1.6841607E-2,4.873667E-3,5.859157E-2,3.2296624E-2,1.0894705E-1],"split_indices":[0,7,0,0,3,3,3,6,3,7,0,7,0,7,7,0,0,0,0,0,0,0,0,0,0,0,0,0,0,0,0],"split_type":[0,0,0,0,0,0,0,0,0,0,0,0,0,0,0,0,0,0,0,0,0,0,0,0,0,0,0,0,0,0,0],"sum_hessian":[2.1321E4,2.0019E4,1.302E3,1.0721E4,9.298E3,8.55E2,4.47E2,9.337E3,1.384E3,8.961E3,3.37E2,7.05E2,1.5E2,3.87E2,6E1,4.735E3,4.602E3,1.281E3,1.03E2,4.759E3,4.202E3,1.82E2,1.55E2,1.25E2,5.8E2,1.11E2,3.9E1,3.2E1,3.55E2,6E0,5.4E1],"tree_param":{"num_deleted":"0","num_feature":"8","num_nodes":"31","size_leaf_vector":"1"}},{"base_weights":[6.0534466E-4,-7.9210736E-2,3.9458388E-1,-2.1337163E-1,3.660327E-2,2.5514022E-1,8.671624E-1,-2.5355437E-1,-1.2756355E-1,-2.8065389E-2,1.4149389E-1,1.1620167E-1,4.0261248E-1,3.2866505E-1,9.5861477E-1,-8.858367E-3,-1.5272233E-2,-5.8170147E-3,-2.4248645E-2,-4.6678777E-3,3.9717862E-3,2.4755305E-2,6.6108257E-3,-3.0281086E-2,6.391796E-3,1.5090483E-2,2.8930444E-2,-7.6682093E-3,3.4707807E-2,3.813624E-2,5.6793995E-2],"categories":[],"categories_nodes":[],"categories_segments":[],"categories_sizes":[],"default_left":[0,0,0,0,0,0,0,0,0,0,0,0,0,0,0,0,0,0,0,0,0,0,0,0,0,0,0,0,0,0,0],"id":12,"left_children":[1,3,5,7,9,11,13,15,17,19,21,23,25,27,29,-1,-1,-1,-1,-1,-1,-1,-1,-1,-1,-1,-1,-1,-1,-1,-1],"loss_changes":[6.7460706E2,2.7718506E2,2.3793439E2,2.8465424E1,6.495249E1,5.716014E1,4.0215088E1,2.2253876E1,1.0525379E1,4.1587852E1,1.1915253E1,1.21619625E1,2.3846588E1,2.142392E1,2.3544922E1,0E0,0E0,0E0,0E0,0E0,0E0,0E0,0E0,0E0,0E0,0E0,0E0,0E0,0E0,0E0,0E0],"parents":[2147483647,0,0,1,1,2,2,3,3,4,4,5,5,6,6,7,7,8,8,9,9,10,10,11,11,12,12,13,13,14,14],"right_children":[2,4,6,8,10,12,14,16,18,20,22,24,26,28,30,-1,-1,-1,-1,-1,-1,-1,-1,-1,-1,-1,-1,-1,-1,-1,-1],"split_conditions":[5.92083E0,-1.8369701E-16,2.35191E1,2E0,1.9598222E0,5E-1,-1.8369701E-16,-2.4492937E-16,5.6E0,8.660254E-1,1.1282028E0,3.56667E0,1.2246469E-16,5E-1,3.8050755E1,-8.858367E-3,-1.5272233E-2,-5.8170147E-3,-2.4248645E-2,-4.6678777E-3,3.9717862E-3,2.4755305E-2,6.6108257E-3,-3.0281086E-2,6.391796E-3,1.5090483E-2,2.8930444E-2,-7.6682093E-3,3.4707807E-2,3.813624E-2,5.6793995E-2],"split_indices":[1,7,1,2,2,7,7,6,1,7,5,5,6,6,1,0,0,0,0,0,0,0,0,0,0,0,0,0,0,0,0],"split_type":[0,0,0,0,0,0,0,0,0,0,0,0,0,0,0,0,0,0,0,0,0,0,0,0,0,0,0,0,0,0,0],"sum_hessian":[2.1451E4,1.7838E4,3.613E3,8.264E3,9.574E3,2.791E3,8.22E2,5.627E3,2.637E3,5.923E3,3.651E3,1.438E3,1.353E3,1.2E2,7.02E2,2.278E3,3.349E3,2.558E3,7.9E1,3.685E3,2.238E3,9.2E1,3.559E3,2.2E1,1.416E3,8.62E2,4.91E2,5.2E1,6.8E1,3.36E2,3.66E2],"tree_param":{"num_deleted":"0","num_feature":"8","num_nodes":"31","size_leaf_vector":"1"}},{"base_weights":[-1.2162328E-3,-6.0009025E-2,4.619419E-1,-1.411568E-1,3.7262667E-2,2.9011065E-1,9.1063535E-1,-7.589008E-2,-2.0905471E-1,2.2809831E-2,4.4085073E-1,1.8898933E-1,6.5584105E-1,8.130966E-1,1.4696559E0,-4.026664E-3,2.9262219E-2,-1.2705368E-2,-6.584465E-3,-1.0621039E-3,4.8212153E-3,3.0531628E-2,-4.1814796E-3,2.901302E-2,8.2940385E-3,2.0978851E-2,4.155483E-2,3.119239E-2,5.859984E-2,3.1760536E-2,8.658514E-2],"categories":[],"categories_nodes":[],"categories_segments":[],"categories_sizes":[],"default_left":[0,0,0,0,0,0,0,0,0,0,0,0,0,0,0,0,0,0,0,0,0,0,0,0,0,0,0,0,0,0,0],"id":13,"left_children":[1,3,5,7,9,11,13,15,17,19,21,23,25,27,29,-1,-1,-1,-1,-1,-1,-1,-1,-1,-1,-1,-1,-1,-1,-1,-1],"loss_changes":[5.8357434E2,1.5011368E2,1.8585419E2,4.5929657E1,5.0445324E1,6.448561E1,3.5228516E1,1.6280125E1,1.7676437E1,2.70864E1,2.6676186E1,1.2290894E1,1.53029785E1,3.8052002E1,2.0329056E1,0E0,0E0,0E0,0E0,0E0,0E0,0E0,0E0,0E0,0E0,0E0,0E0,0E0,0E0,0E0,0E0],"parents":[2147483647,0,0,1,1,2,2,3,3,4,4,5,5,6,6,7,7,8,8,9,9,10,10,11,11,12,12,13,13,14,14],"right_children":[2,4,6,8,10,12,14,16,18,20,22,24,26,28,30,-1,-1,-1,-1,-1,-1,-1,-1,-1,-1,-1,-1,-1,-1,-1,-1],"split_conditions":[3.434805E1,5.4378734E0,2.50333E1,1.2246469E-16,1.793337E1,8.382E1,1.621333E2,4.318E0,3.125E-1,3.56667E0,2.03333E1,-8.660254E-1,1.221804E1,8.660254E-1,3.8050755E1,-4.026664E-3,2.9262219E-2,-1.2705368E-2,-6.584465E-3,-1.0621039E-3,4.8212153E-3,3.0531628E-2,-4.1814796E-3,2.901302E-2,8.2940385E-3,2.0978851E-2,4.155483E-2,3.119239E-2,5.859984E-2,3.1760536E-2,8.658514E-2],"split_indices":[3,3,1,6,1,3,3,1,1,1,5,6,2,6,1,0,0,0,0,0,0,0,0,0,0,0,0,0,0,0,0],"split_type":[0,0,0,0,0,0,0,0,0,0,0,0,0,0,0,0,0,0,0,0,0,0,0,0,0,0,0,0,0,0,0],"sum_hessian":[2.1429E4,1.9016E4,2.413E3,1.0367E4,8.649E3,1.746E3,6.67E2,5.287E3,5.08E3,8.351E3,2.98E2,1.369E3,3.77E2,5.7E2,9.7E1,5.251E3,3.6E1,3.209E3,1.871E3,5.225E3,3.126E3,2.25E2,7.3E1,7.5E1,1.294E3,1.62E2,2.15E2,3.75E2,1.95E2,2.4E1,7.3E1],"tree_param":{"num_deleted":"0","num_feature":"8","num_nodes":"31","size_leaf_vector":"1"}},{"base_weights":[-1.7940263E-3,-4.2430107E-2,6.256396E-1,-1.479624E-1,1.2778348E-1,4.18868E-1,9.888994E-1,-1.7917217E-1,2.9011253E-2,4.797341E-2,2.3854463E-1,9.592204E-2,4.7891065E-1,8.467017E-1,1.4792047E0,-1.0785433E-2,-3.7697498E-3,1.057236E-2,-2.3374644E-3,-1.4446626E-3,5.5067604E-3,1.0892373E-2,3.1471204E-2,-1.067801E-2,3.2098256E-2,2.3264192E-2,8.0229096E-2,4.5478486E-2,1.2900295E-2,1.6323261E-2,8.338503E-2],"categories":[],"categories_nodes":[],"categories_segments":[],"categories_sizes":[],"default_left":[0,0,0,0,0,0,0,0,0,0,0,0,0,0,0,0,0,0,0,0,0,0,0,0,0,0,0,0,0,0,0],"id":14,"left_children":[1,3,5,7,9,11,13,15,17,19,21,23,25,27,29,-1,-1,-1,-1,-1,-1,-1,-1,-1,-1,-1,-1,-1,-1,-1,-1],"loss_changes":[5.474352E2,3.622434E2,9.768179E1,6.875937E1,6.8214554E1,1.6125763E1,3.172525E1,4.0107025E1,2.5814526E1,2.144283E1,2.6010086E1,2.2443861E1,1.0036972E1,1.3422058E1,2.2270645E1,0E0,0E0,0E0,0E0,0E0,0E0,0E0,0E0,0E0,0E0,0E0,0E0,0E0,0E0,0E0,0E0],"parents":[2147483647,0,0,1,1,2,2,3,3,4,4,5,5,6,6,7,7,8,8,9,9,10,10,11,11,12,12,13,13,14,14],"right_children":[2,4,6,8,10,12,14,16,18,20,22,24,26,28,30,-1,-1,-1,-1,-1,-1,-1,-1,-1,-1,-1,-1,-1,-1,-1,-1],"split_conditions":[7.86667E0,5E-1,1.8521353E1,1.98333E0,1.2408594E0,-5E-1,5.36704E1,-1.8369701E-16,3.2E0,8.660254E-1,2.33765E1,1.9514967E1,8.0518E1,1E0,-1.8369701E-16,-1.0785433E-2,-3.7697498E-3,1.057236E-2,-2.3374644E-3,-1.4446626E-3,5.5067604E-3,1.0892373E-2,3.1471204E-2,-1.067801E-2,3.2098256E-2,2.3264192E-2,8.0229096E-2,4.5478486E-2,1.2900295E-2,1.6323261E-2,8.338503E-2],"split_indices":[0,7,0,0,1,7,5,7,5,7,5,1,5,7,7,0,0,0,0,0,0,0,0,0,0,0,0,0,0,0,0],"split_type":[0,0,0,0,0,0,0,0,0,0,0,0,0,0,0,0,0,0,0,0,0,0,0,0,0,0,0,0,0,0,0],"sum_hessian":[2.1469E4,2.0164E4,1.305E3,1.2447E4,7.717E3,8.33E2,4.72E2,1.0581E4,1.866E3,4.486E3,3.231E3,1.31E2,7.02E2,3.68E2,1.04E2,7.825E3,2.756E3,5.47E2,1.319E3,2.006E3,2.48E3,3.07E3,1.61E2,8.4E1,4.7E1,6.95E2,7E0,3.32E2,3.6E1,1.5E1,8.9E1],"tree_param":{"num_deleted":"0","num_feature":"8","num_nodes":"31","size_leaf_vector":"1"}},{"base_weights":[4.3367874E-3,-3.878632E-2,6.3190645E-1,-1.6986115E-1,7.029835E-2,5.196216E-1,1.1585608E0,-1.9854224E-1,-6.711388E-3,-2.9925352E-2,1.5431194E-1,4.2189953E-1,1.0196854E0,1.874823E0,9.8906654E-1,-6.454664E-3,-1.2404244E-2,-1.9968587E-3,1.147345E-2,-2.0035964E-3,4.6670195E-2,6.7733997E-3,2.5179764E-2,1.4647069E-2,3.0268908E-2,6.2257614E-2,2.5853787E-2,-5.848378E-2,9.852999E-2,1.5965572E-2,6.658959E-2],"categories":[],"categories_nodes":[],"categories_segments":[],"categories_sizes":[],"default_left":[0,0,0,0,0,0,0,0,0,0,0,0,0,0,0,0,0,0,0,0,0,0,0,0,0,0,0,0,0,0,0],"id":15,"left_children":[1,3,5,7,9,11,13,15,17,19,21,23,25,27,29,-1,-1,-1,-1,-1,-1,-1,-1,-1,-1,-1,-1,-1,-1,-1,-1],"loss_changes":[5.791675E2,2.8633444E2,8.076813E1,4.2561737E1,9.2036896E1,5.5083008E1,2.7403625E1,2.6585144E1,1.0689312E1,4.8763245E1,3.9067642E1,2.2347992E1,2.0320694E1,1.54266205E1,4.479451E1,0E0,0E0,0E0,0E0,0E0,0E0,0E0,0E0,0E0,0E0,0E0,0E0,0E0,0E0,0E0,0E0],"parents":[2147483647,0,0,1,1,2,2,3,3,4,4,5,5,6,6,7,7,8,8,9,9,10,10,11,11,12,12,13,13,14,14],"right_children":[2,4,6,8,10,12,14,16,18,20,22,24,26,28,30,-1,-1,-1,-1,-1,-1,-1,-1,-1,-1,-1,-1,-1,-1,-1,-1],"split_conditions":[1.5430442E1,-1.8369701E-16,2.63E1,1.98333E0,5.4378734E0,1.02616E2,3.07583E1,-2.4492937E-16,6.87083E0,4.1E0,7.0800995E1,8.660254E-1,5.22042E1,2.86E1,6.7222084E1,-6.454664E-3,-1.2404244E-2,-1.9968587E-3,1.147345E-2,-2.0035964E-3,4.6670195E-2,6.7733997E-3,2.5179764E-2,1.4647069E-2,3.0268908E-2,6.2257614E-2,2.5853787E-2,-5.848378E-2,9.852999E-2,1.5965572E-2,6.658959E-2],"split_indices":[1,7,0,0,3,3,0,6,0,1,3,7,1,3,3,0,0,0,0,0,0,0,0,0,0,0,0,0,0,0,0],"split_type":[0,0,0,0,0,0,0,0,0,0,0,0,0,0,0,0,0,0,0,0,0,0,0,0,0,0,0,0,0,0,0],"sum_hessian":[2.1399E4,2.0024E4,1.375E3,9.095E3,1.0929E4,1.135E3,2.4E2,7.735E3,1.36E3,4.984E3,5.945E3,9.51E2,1.84E2,4.4E1,1.96E2,3.222E3,4.513E3,1.193E3,1.67E2,4.933E3,5.1E1,5.642E3,3.03E2,5.6E2,3.91E2,1.26E2,5.8E1,1E0,4.3E1,6.7E1,1.29E2],"tree_param":{"num_deleted":"0","num_feature":"8","num_nodes":"31","size_leaf_vector":"1"}},{"base_weights":[1.3496612E-3,-4.9808145E-2,4.4765842E-1,-1.7221743E-1,5.1995758E-2,3.247659E-1,8.961008E-1,-1.986713E-1,-9.926379E-2,1.9780673E-2,3.3424997E-1,1.193957E-1,4.1224656E-1,6.3446677E-1,1.2518377E0,-1.15257045E-2,-7.5055906E-3,1.0454539E-2,-5.9892274E-3,-1.7670209E-3,5.411283E-3,1.1729805E-2,2.9147184E-2,3.380779E-3,4.1527506E-2,-7.705888E-4,2.186642E-2,2.21954E-2,4.490119E-2,8.340045E-2,4.5343652E-2],"categories":[],"categories_nodes":[],"categories_segments":[],"categories_sizes":[],"default_left":[0,0,0,0,0,0,0,0,0,0,0,0,0,0,0,0,0,0,0,0,0,0,0,0,0,0,0,0,0,0,0],"id":16,"left_children":[1,3,5,7,9,11,13,15,17,19,21,23,25,27,29,-1,-1,-1,-1,-1,-1,-1,-1,-1,-1,-1,-1,-1,-1,-1,-1],"loss_changes":[4.877861E2,2.3886319E2,1.2078613E2,1.6776245E1,9.5149994E1,3.095996E1,4.313617E1,9.839874E0,1.4692593E1,4.5801304E1,2.6430931E1,1.8981678E1,1.2985764E1,1.3362488E1,2.705661E1,0E0,0E0,0E0,0E0,0E0,0E0,0E0,0E0,0E0,0E0,0E0,0E0,0E0,0E0,0E0,0E0],"parents":[2147483647,0,0,1,1,2,2,3,3,4,4,5,5,6,6,7,7,8,8,9,9,10,10,11,11,12,12,13,13,14,14],"right_children":[2,4,6,8,10,12,14,16,18,20,22,24,26,28,30,-1,-1,-1,-1,-1,-1,-1,-1,-1,-1,-1,-1,-1,-1,-1,-1],"split_conditions":[4.9125E0,-1.8369701E-16,1.8521353E1,8.579163E0,3.517077E1,-1.8369701E-16,5.75375E1,-5E-1,9.063314E0,8.660254E-1,8.382E1,5.731663E1,6.053709E0,8.660254E-1,7.8994E1,-1.15257045E-2,-7.5055906E-3,1.0454539E-2,-5.9892274E-3,-1.7670209E-3,5.411283E-3,1.1729805E-2,2.9147184E-2,3.380779E-3,4.1527506E-2,-7.705888E-4,2.186642E-2,2.21954E-2,4.490119E-2,8.340045E-2,4.5343652E-2],"split_indices":[0,7,0,3,3,7,2,7,3,7,3,3,1,7,2,0,0,0,0,0,0,0,0,0,0,0,0,0,0,0,0],"split_type":[0,0,0,0,0,0,0,0,0,0,0,0,0,0,0,0,0,0,0,0,0,0,0,0,0,0,0,0,0,0,0],"sum_hessian":[2.1362E4,1.9166E4,2.196E3,8.702E3,1.0464E4,1.725E3,4.71E2,6.385E3,2.317E3,9.393E3,1.071E3,5.16E2,1.209E3,2.73E2,1.98E2,3.854E3,2.531E3,1.44E2,2.173E3,5.787E3,3.606E3,7.66E2,3.05E2,4.82E2,3.4E1,6.7E1,1.142E3,1.6E2,1.13E2,8.8E1,1.1E2],"tree_param":{"num_deleted":"0","num_feature":"8","num_nodes":"31","size_leaf_vector":"1"}},{"base_weights":[-3.4257108E-3,-4.102715E-2,5.523505E-1,-1.0103655E-1,7.5877436E-2,4.792752E-1,1.3995067E0,-1.4187108E-1,-3.0148525E-2,5.4707922E-2,4.3377164E-1,3.7838995E-1,9.4382405E-1,5.269215E-1,1.6730905E0,-4.540469E-3,-9.612313E-3,-4.1785142E-3,1.2656024E-3,-5.962513E-4,7.776852E-3,1.9377295E-2,1.05037384E-1,2.0924937E-2,-8.796621E-3,-1.8508871E-3,5.0753918E-2,5.26986E-2,-1.6775647E-2,2.6434189E-2,9.420497E-2],"categories":[],"categories_nodes":[],"categories_segments":[],"categories_sizes":[],"default_left":[0,0,0,0,0,0,0,0,0,0,0,0,0,0,0,0,0,0,0,0,0,0,0,0,0,0,0,0,0,0,0],"id":17,"left_children":[1,3,5,7,9,11,13,15,17,19,21,23,25,27,29,-1,-1,-1,-1,-1,-1,-1,-1,-1,-1,-1,-1,-1,-1,-1,-1],"loss_changes":[4.4652908E2,1.4040634E2,8.31503E1,3.8277863E1,5.141278E1,5.8131775E1,2.4662018E1,2.1566208E1,1.4327259E1,4.3074425E1,2.8390549E1,2.2907104E1,1.5552963E1,1.2626375E1,1.8563782E1,0E0,0E0,0E0,0E0,0E0,0E0,0E0,0E0,0E0,0E0,0E0,0E0,0E0,0E0,0E0,0E0],"parents":[2147483647,0,0,1,1,2,2,3,3,4,4,5,5,6,6,7,7,8,8,9,9,10,10,11,11,12,12,13,13,14,14],"right_children":[2,4,6,8,10,12,14,16,18,20,22,24,26,28,30,-1,-1,-1,-1,-1,-1,-1,-1,-1,-1,-1,-1,-1,-1,-1,-1],"split_conditions":[1.6002E1,9.652E0,1.621333E2,2.66667E-1,7.0800995E1,2.63E1,3.8050755E1,1.2246469E-16,4.318E0,1.66667E0,1.5430442E1,5.22042E1,4.089242E1,4.8E0,9.56667E0,-4.540469E-3,-9.612313E-3,-4.1785142E-3,1.2656024E-3,-5.962513E-4,7.776852E-3,1.9377295E-2,1.05037384E-1,2.0924937E-2,-8.796621E-3,-1.8508871E-3,5.0753918E-2,5.26986E-2,-1.6775647E-2,2.6434189E-2,9.420497E-2],"split_indices":[1,3,3,0,3,0,1,6,3,0,1,1,3,0,0,0,0,0,0,0,0,0,0,0,0,0,0,0,0,0,0],"split_type":[0,0,0,0,0,0,0,0,0,0,0,0,0,0,0,0,0,0,0,0,0,0,0,0,0,0,0,0,0,0,0],"sum_hessian":[2.1365E4,2.0012E4,1.353E3,1.3224E4,6.788E3,1.247E3,1.06E2,8.39E3,4.834E3,6.41E3,3.78E2,1.026E3,2.21E2,2.6E1,8E1,4.168E3,4.222E3,2.462E3,2.372E3,3.86E3,2.55E3,3.69E2,9E0,9.57E2,6.9E1,1.5E1,2.06E2,1.6E1,1E1,1.3E1,6.7E1],"tree_param":{"num_deleted":"0","num_feature":"8","num_nodes":"31","size_leaf_vector":"1"}},{"base_weights":[-2.5220525E-3,-3.726408E-2,6.001684E-1,-1.20492764E-1,9.789888E-2,5.008815E-1,1.3240161E0,-1.6853562E-1,1.4138932E-2,5.016191E-2,2.6078394E-1,1.4889747E-1,5.814808E-1,7.1476716E-1,1.4892157E0,-1.0902355E-2,-6.4258995E-3,-4.478995E-3,6.346091E-3,1.6139504E-3,1.4703785E-2,3.5399437E-2,1.2105319E-2,-2.1120824E-3,3.163631E-2,2.5290428E-2,3.7293192E-2,-1.1419478E-2,4.4894237E-2,4.7273993E-2,8.2735114E-2],"categories":[],"categories_nodes":[],"categories_segments":[],"categories_sizes":[],"default_left":[0,0,0,0,0,0,0,0,0,0,0,0,0,0,0,0,0,0,0,0,0,0,0,0,0,0,0,0,0,0,0],"id":18,"left_children":[1,3,5,7,9,11,13,15,17,19,21,23,25,27,29,-1,-1,-1,-1,-1,-1,-1,-1,-1,-1,-1,-1,-1,-1,-1,-1],"loss_changes":[4.5102075E2,2.291178E2,8.37106E1,8.1532715E1,6.034144E1,2.924762E1,1.3126877E1,1.837854E1,3.8800976E1,2.6179268E1,1.4521004E1,1.7967571E1,1.0084137E1,5.731743E0,8.333435E0,0E0,0E0,0E0,0E0,0E0,0E0,0E0,0E0,0E0,0E0,0E0,0E0,0E0,0E0,0E0,0E0],"parents":[2147483647,0,0,1,1,2,2,3,3,4,4,5,5,6,6,7,7,8,8,9,9,10,10,11,11,12,12,13,13,14,14],"right_children":[2,4,6,8,10,12,14,16,18,20,22,24,26,28,30,-1,-1,-1,-1,-1,-1,-1,-1,-1,-1,-1,-1,-1,-1,-1,-1],"split_conditions":[1.793337E1,5E-1,1.397E2,2.499997E0,3.6096463E0,-1.8369701E-16,3.8050755E1,-5E-1,1.4240413E1,3.596663E1,4.36667E0,4.0916553E1,8.660254E-1,-1.8369701E-16,1.621333E2,-1.0902355E-2,-6.4258995E-3,-4.478995E-3,6.346091E-3,1.6139504E-3,1.4703785E-2,3.5399437E-2,1.2105319E-2,-2.1120824E-3,3.163631E-2,2.5290428E-2,3.7293192E-2,-1.1419478E-2,4.4894237E-2,4.7273993E-2,8.2735114E-2],"split_indices":[1,7,3,1,1,7,1,7,3,3,2,2,6,7,3,0,0,0,0,0,0,0,0,0,0,0,0,0,0,0,0],"split_type":[0,0,0,0,0,0,0,0,0,0,0,0,0,0,0,0,0,0,0,0,0,0,0,0,0,0,0,0,0,0,0],"sum_hessian":[2.1538E4,2.0365E4,1.173E3,1.2604E4,7.761E3,1.033E3,1.4E2,9.289E3,3.315E3,6.003E3,1.758E3,1.93E2,8.4E2,3.1E1,1.09E2,4.15E3,5.139E3,1.727E3,1.588E3,5.594E3,4.09E2,6.9E1,1.689E3,1.39E2,5.4E1,5.78E2,2.62E2,5E0,2.6E1,2.7E1,8.2E1],"tree_param":{"num_deleted":"0","num_feature":"8","num_nodes":"31","size_leaf_vector":"1"}},{"base_weights":[-4.6963408E-4,-2.8695663E-2,6.438002E-1,-1.1054397E-1,1.0185332E-1,5.4826546E-1,1.1578188E0,-1.5049379E-1,4.5477252E-2,5.0959354E-3,1.6779044E-1,1.676793E-1,6.200703E-1,1.4115274E0,8.8394547E-1,-5.517235E-3,-9.220531E-3,-5.570786E-3,6.57973E-3,2.588463E-3,-3.0900822E-3,6.2409583E-3,1.3268414E-2,4.3080547E-3,8.646688E-2,3.2150693E-2,-3.161585E-2,3.3678707E-2,8.6455345E-2,-6.4548634E-2,4.670879E-2],"categories":[],"categories_nodes":[],"categories_segments":[],"categories_sizes":[],"default_left":[0,0,0,0,0,0,0,0,0,0,0,0,0,0,0,0,0,0,0,0,0,0,0,0,0,0,0,0,0,0,0],"id":19,"left_children":[1,3,5,7,9,11,13,15,17,19,21,23,25,27,29,-1,-1,-1,-1,-1,-1,-1,-1,-1,-1,-1,-1,-1,-1,-1,-1],"loss_changes":[3.895086E2,2.1927182E2,4.3512085E1,7.86239E1,5.045143E1,2.0665253E1,8.480057E0,1.3654144E1,3.4765488E1,1.0013398E1,1.9686768E1,1.5382033E1,1.876773E1,1.54747925E1,8.853268E0,0E0,0E0,0E0,0E0,0E0,0E0,0E0,0E0,0E0,0E0,0E0,0E0,0E0,0E0,0E0,0E0],"parents":[2147483647,0,0,1,1,2,2,3,3,4,4,5,5,6,6,7,7,8,8,9,9,10,10,11,11,12,12,13,13,14,14],"right_children":[2,4,6,8,10,12,14,16,18,20,22,24,26,28,30,-1,-1,-1,-1,-1,-1,-1,-1,-1,-1,-1,-1,-1,-1,-1,-1],"split_conditions":[2.249997E1,5E-1,1.397E2,1.4240413E1,4.99925E0,-1.8369701E-16,6.22E1,-2.4492937E-16,2.499997E0,3E0,5.285038E0,1.26746E2,8.0518E1,3.8050755E1,-5E-1,-5.517235E-3,-9.220531E-3,-5.570786E-3,6.57973E-3,2.588463E-3,-3.0900822E-3,6.2409583E-3,1.3268414E-2,4.3080547E-3,8.646688E-2,3.2150693E-2,-3.161585E-2,3.3678707E-2,8.6455345E-2,-6.4548634E-2,4.670879E-2],"split_indices":[1,7,3,3,3,7,5,6,1,4,1,3,5,1,7,0,0,0,0,0,0,0,0,0,0,0,0,0,0,0,0],"split_type":[0,0,0,0,0,0,0,0,0,0,0,0,0,0,0,0,0,0,0,0,0,0,0,0,0,0,0,0,0,0,0],"sum_hessian":[2.1417E4,2.0519E4,8.98E2,1.2612E4,7.907E3,7.59E2,1.39E2,1.0041E4,2.571E3,3.205E3,4.702E3,1.21E2,6.38E2,7E1,6.9E1,4.6E3,5.441E3,9.11E2,1.66E3,1.888E3,1.317E3,3.266E3,1.436E3,1.16E2,5E0,6.27E2,1.1E1,2.2E1,4.8E1,1E0,6.8E1],"tree_param":{"num_deleted":"0","num_feature":"8","num_nodes":"31","size_leaf_vector":"1"}},{"base_weights":[-2.3418635E-3,-3.5233397E-2,4.8570573E-1,-9.130418E-2,5.285041E-2,3.716401E-1,9.699243E-1,-1.1479254E-1,-2.9900089E-2,5.775035E-2,-7.047577E-1,1.9674328E-1,4.512368E-1,2.097977E0,8.60192E-1,-3.99246E-3,-7.390047E-3,3.9595228E-2,-1.7515261E-3,7.158869E-4,7.4458243E-3,-1.4561935E-2,-4.1383926E-2,3.200989E-2,2.6358326E-3,5.6238454E-2,1.9600742E-2,8.096489E-3,1.4069371E-1,9.021334E-3,5.737419E-2],"categories":[],"categories_nodes":[],"categories_segments":[],"categories_sizes":[],"default_left":[0,0,0,0,0,0,0,0,0,0,0,0,0,0,0,0,0,0,0,0,0,0,0,0,0,0,0,0,0,0,0],"id":20,"left_children":[1,3,5,7,9,11,13,15,17,19,21,23,25,27,29,-1,-1,-1,-1,-1,-1,-1,-1,-1,-1,-1,-1,-1,-1,-1,-1],"loss_changes":[3.4221112E2,9.86451E1,7.398279E1,1.7598167E1,2.8881063E1,1.5099258E1,2.9883972E1,1.0169464E1,1.4270113E1,3.0565853E1,2.3004494E0,2.1873404E1,2.943512E1,3.003659E1,4.5686356E1,0E0,0E0,0E0,0E0,0E0,0E0,0E0,0E0,0E0,0E0,0E0,0E0,0E0,0E0,0E0,0E0],"parents":[2147483647,0,0,1,1,2,2,3,3,4,4,5,5,6,6,7,7,8,8,9,9,10,10,11,11,12,12,13,13,14,14],"right_children":[2,4,6,8,10,12,14,16,18,20,22,24,26,28,30,-1,-1,-1,-1,-1,-1,-1,-1,-1,-1,-1,-1,-1,-1,-1,-1],"split_conditions":[7.86667E0,2.399997E0,2.63E1,2.1695906E-1,7.63333E0,1.7647375E1,2.82667E1,1.2246469E-16,2.33333E-1,2.46667E0,-5E-1,1.0599997E1,1.94083E1,2.8132565E1,5.349997E1,-3.99246E-3,-7.390047E-3,3.9595228E-2,-1.7515261E-3,7.158869E-4,7.4458243E-3,-1.4561935E-2,-4.1383926E-2,3.200989E-2,2.6358326E-3,5.6238454E-2,1.9600742E-2,8.096489E-3,1.4069371E-1,9.021334E-3,5.737419E-2],"split_indices":[0,2,0,0,0,2,5,6,1,0,6,2,2,1,2,0,0,0,0,0,0,0,0,0,0,0,0,0,0,0,0],"split_type":[0,0,0,0,0,0,0,0,0,0,0,0,0,0,0,0,0,0,0,0,0,0,0,0,0,0,0,0,0,0,0],"sum_hessian":[2.1316E4,1.9971E4,1.345E3,1.2203E4,7.768E3,1.09E3,2.55E2,8.826E3,3.377E3,7.719E3,4.9E1,3.42E2,7.48E2,2.1E1,2.34E2,4.289E3,4.537E3,2E1,3.357E3,5.229E3,2.49E3,1.2E1,3.7E1,8.3E1,2.59E2,5.9E1,6.89E2,6E0,1.5E1,7E1,1.64E2],"tree_param":{"num_deleted":"0","num_feature":"8","num_nodes":"31","size_leaf_vector":"1"}},{"base_weights":[-2.1674775E-3,-3.3797756E-2,4.5469308E-1,-6.994331E-2,1.6410187E-1,3.3978087E-1,9.4870245E-1,-2.236293E-2,-1.2004859E-1,1.4186321E-1,4.0578654E-1,2.1222484E-1,6.219845E-1,8.207764E-1,1.4238862E0,-3.0580012E-3,2.6983211E-3,-1.0215339E-2,-4.5766416E-3,7.892249E-3,-6.5772394E-3,8.083299E-3,3.4462333E-2,1.1101606E-2,-5.4250814E-2,3.377332E-2,7.565008E-3,5.299882E-2,1.0654181E-2,1.0449512E-1,5.013115E-2],"categories":[],"categories_nodes":[],"categories_segments":[],"categories_sizes":[],"default_left":[0,0,0,0,0,0,0,0,0,0,0,0,0,0,0,0,0,0,0,0,0,0,0,0,0,0,0,0,0,0,0],"id":21,"left_children":[1,3,5,7,9,11,13,15,17,19,21,23,25,27,29,-1,-1,-1,-1,-1,-1,-1,-1,-1,-1,-1,-1,-1,-1,-1,-1],"loss_changes":[3.093166E2,1.432112E2,7.83577E1,4.035414E1,1.6561142E1,4.040036E1,1.4697067E1,2.571972E1,1.9791458E1,1.2399681E1,1.7880169E1,1.0126217E1,8.708405E0,3.0009018E1,1.3055298E1,0E0,0E0,0E0,0E0,0E0,0E0,0E0,0E0,0E0,0E0,0E0,0E0,0E0,0E0,0E0,0E0],"parents":[2147483647,0,0,1,1,2,2,3,3,4,4,5,5,6,6,7,7,8,8,9,9,10,10,11,11,12,12,13,13,14,14],"right_children":[2,4,6,8,10,12,14,16,18,20,22,24,26,28,30,-1,-1,-1,-1,-1,-1,-1,-1,-1,-1,-1,-1,-1,-1,-1,-1],"split_conditions":[5.0730217E1,2.46667E0,2.01875E1,1.2246469E-16,2.35191E1,1.02616E2,1.621333E2,2E0,9.5236295E-1,2.34334E1,5E-1,7.15E1,5.22042E1,7.8994E1,1.217E2,-3.0580012E-3,2.6983211E-3,-1.0215339E-2,-4.5766416E-3,7.892249E-3,-6.5772394E-3,8.083299E-3,3.4462333E-2,1.1101606E-2,-5.4250814E-2,3.377332E-2,7.565008E-3,5.299882E-2,1.0654181E-2,1.0449512E-1,5.013115E-2],"split_indices":[3,0,0,6,1,3,3,2,3,2,6,1,1,2,2,0,0,0,0,0,0,0,0,0,0,0,0,0,0,0,0],"split_type":[0,0,0,0,0,0,0,0,0,0,0,0,0,0,0,0,0,0,0,0,0,0,0,0,0,0,0,0,0,0,0],"sum_hessian":[2.1403E4,2.0018E4,1.385E3,1.6927E4,3.091E3,1.125E3,2.6E2,8.683E3,8.244E3,2.832E3,2.59E2,7.76E2,3.49E2,2.07E2,5.3E1,5.757E3,2.926E3,2.083E3,6.161E3,2.676E3,1.56E2,1.4E2,1.19E2,7.71E2,5E0,3.13E2,3.6E1,1.48E2,5.9E1,1.9E1,3.4E1],"tree_param":{"num_deleted":"0","num_feature":"8","num_nodes":"31","size_leaf_vector":"1"}},{"base_weights":[1.0184658E-2,-1.8133903E-2,4.7953495E-1,-6.579833E-2,1.5164983E-1,3.9332837E-1,1.0278282E0,-9.4910555E-2,1.109001E-1,1.3393904E-1,5.104155E-1,1.4912856E0,3.5307544E-1,1.9913883E0,9.7253513E-1,-7.9436E-3,-2.9504187E-3,3.7729845E-3,3.2200158E-2,2.4615307E-3,9.432091E-3,9.675016E-3,3.6176976E-2,1.7155206E-2,1.3420968E-1,1.0355151E-2,2.8381703E-2,-3.862381E-6,1.1379472E-1,3.8191203E-2,5.8840264E-2],"categories":[],"categories_nodes":[],"categories_segments":[],"categories_sizes":[],"default_left":[0,0,0,0,0,0,0,0,0,0,0,0,0,0,0,0,0,0,0,0,0,0,0,0,0,0,0,0,0,0,0],"id":22,"left_children":[1,3,5,7,9,11,13,15,17,19,21,23,25,27,29,-1,-1,-1,-1,-1,-1,-1,-1,-1,-1,-1,-1,-1,-1,-1,-1],"loss_changes":[2.8473544E2,1.6351378E2,5.7213593E1,8.1163605E1,2.8073586E1,4.610025E1,6.8542175E0,3.1094757E1,4.2121456E1,1.9554565E1,1.3908783E1,4.9757027E1,3.1797157E1,4.5328465E0,5.837204E0,0E0,0E0,0E0,0E0,0E0,0E0,0E0,0E0,0E0,0E0,0E0,0E0,0E0,0E0,0E0,0E0],"parents":[2147483647,0,0,1,1,2,2,3,3,4,4,5,5,6,6,7,7,8,8,9,9,10,10,11,11,12,12,13,13,14,14],"right_children":[2,4,6,8,10,12,14,16,18,20,22,24,26,28,30,-1,-1,-1,-1,-1,-1,-1,-1,-1,-1,-1,-1,-1,-1,-1,-1],"split_conditions":[8.46667E0,8.660254E-1,1.12133224E2,2.006667E1,8.382E1,1.1895171E1,-5E-1,-5E-1,1.02616E2,4.7E0,6E-1,8.660254E-1,8.660254E-1,3.68333E1,1.621333E2,-7.9436E-3,-2.9504187E-3,3.7729845E-3,3.2200158E-2,2.4615307E-3,9.432091E-3,9.675016E-3,3.6176976E-2,1.7155206E-2,1.3420968E-1,1.0355151E-2,2.8381703E-2,-3.862381E-6,1.1379472E-1,3.8191203E-2,5.8840264E-2],"split_indices":[0,7,3,3,3,3,6,7,3,3,0,6,7,0,3,0,0,0,0,0,0,0,0,0,0,0,0,0,0,0,0],"split_type":[0,0,0,0,0,0,0,0,0,0,0,0,0,0,0,0,0,0,0,0,0,0,0,0,0,0,0,0,0,0,0],"sum_hessian":[2.1421E4,2.0203E4,1.218E3,1.5775E4,4.428E3,1.054E3,1.64E2,1.3544E4,2.231E3,4.221E3,2.07E2,3.6E1,1.018E3,7E0,1.57E2,4.868E3,8.676E3,2.093E3,1.38E2,1.657E3,2.564E3,8.4E1,1.23E2,1.9E1,1.7E1,6.07E2,4.11E2,1E0,6E0,8E1,7.7E1],"tree_param":{"num_deleted":"0","num_feature":"8","num_nodes":"31","size_leaf_vector":"1"}},{"base_weights":[1.3893167E-3,-1.0091629E-1,1.12246774E-1,-1.351172E-1,1.8428268E-2,7.635526E-2,5.806934E-1,-8.864044E-2,-1.8216717E-1,-1.9421639E-2,1.3274437E-1,1.1469044E-2,1.8348183E-1,4.2983454E-1,7.92867E-1,-4.791841E-3,2.282154E-2,-1.0605301E-2,-5.948057E-3,1.3223299E-3,-6.3261027E-3,4.7173146E-2,4.196474E-3,-2.745034E-3,4.3416563E-3,2.5719283E-2,8.853502E-3,2.5164708E-2,-5.1097423E-3,6.5431826E-2,3.4653157E-2],"categories":[],"categories_nodes":[],"categories_segments":[],"categories_sizes":[],"default_left":[0,0,0,0,0,0,0,0,0,0,0,0,0,0,0,0,0,0,0,0,0,0,0,0,0,0,0,0,0,0,0],"id":23,"left_children":[1,3,5,7,9,11,13,15,17,19,21,23,25,27,29,-1,-1,-1,-1,-1,-1,-1,-1,-1,-1,-1,-1,-1,-1,-1,-1],"loss_changes":[2.4311295E2,4.5505203E1,1.7293047E2,1.893187E1,1.07504835E1,6.642897E1,2.3089249E1,1.7149937E1,8.12117E0,9.174997E0,2.4378246E1,2.9781034E1,7.557602E0,1.685698E1,1.4690201E1,0E0,0E0,0E0,0E0,0E0,0E0,0E0,0E0,0E0,0E0,0E0,0E0,0E0,0E0,0E0,0E0],"parents":[2147483647,0,0,1,1,2,2,3,3,4,4,5,5,6,6,7,7,8,8,9,9,10,10,11,11,12,12,13,13,14,14],"right_children":[2,4,6,8,10,12,14,16,18,20,22,24,26,28,30,-1,-1,-1,-1,-1,-1,-1,-1,-1,-1,-1,-1,-1,-1,-1,-1],"split_conditions":[6.123234E-17,2.9902644E0,2.249997E1,-2.4492937E-16,1.0552202E1,1.8E0,5.75375E1,7.2845664E0,8.660254E-1,5.2625E0,6.8552938E0,8.660254E-1,1.833745E0,1E0,3.37056E1,-4.791841E-3,2.282154E-2,-1.0605301E-2,-5.948057E-3,1.3223299E-3,-6.3261027E-3,4.7173146E-2,4.196474E-3,-2.745034E-3,4.3416563E-3,2.5719283E-2,8.853502E-3,2.5164708E-2,-5.1097423E-3,6.5431826E-2,3.4653157E-2],"split_indices":[7,1,1,6,1,1,2,2,6,5,5,7,1,7,5,0,0,0,0,0,0,0,0,0,0,0,0,0,0,0,0],"split_type":[0,0,0,0,0,0,0,0,0,0,0,0,0,0,0,0,0,0,0,0,0,0,0,0,0,0,0,0,0,0,0],"sum_hessian":[2.1434E4,1.1147E4,1.0287E4,8.664E3,2.483E3,9.556E3,7.31E2,4.36E3,4.304E3,1.866E3,6.17E2,5.952E3,3.604E3,4.29E2,3.02E2,4.304E3,5.6E1,2.919E3,1.385E3,1.307E3,5.59E2,3.4E1,5.83E2,3.165E3,2.787E3,6.7E1,3.537E3,3.77E2,5.2E1,4.7E1,2.55E2],"tree_param":{"num_deleted":"0","num_feature":"8","num_nodes":"31","size_leaf_vector":"1"}},{"base_weights":[9.583713E-3,-1.9808557E-2,4.0701008E-1,-6.702198E-2,1.4896531E-1,3.5013497E-1,8.5071903E-1,-1.09028004E-1,7.2308495E-3,9.3364425E-2,3.4701854E-1,4.120724E-1,6.056345E-2,8.1579186E-2,9.7300124E-1,-6.422431E-3,-1.5167735E-3,-2.6579334E-3,3.906056E-3,5.381106E-3,-8.612525E-3,3.0520666E-2,1.3112678E-2,2.257393E-2,3.39055E-3,-9.928737E-3,7.812038E-3,2.8599232E-2,-3.3109345E-2,3.0027827E-2,6.5382145E-2],"categories":[],"categories_nodes":[],"categories_segments":[],"categories_sizes":[],"default_left":[0,0,0,0,0,0,0,0,0,0,0,0,0,0,0,0,0,0,0,0,0,0,0,0,0,0,0,0,0,0,0],"id":24,"left_children":[1,3,5,7,9,11,13,15,17,19,21,23,25,27,29,-1,-1,-1,-1,-1,-1,-1,-1,-1,-1,-1,-1,-1,-1,-1,-1],"loss_changes":[2.5037259E2,1.5904317E2,3.6950455E1,4.8645737E1,4.801268E1,2.3470291E1,1.5627327E1,1.5219078E1,2.4132032E1,1.2924826E1,2.1184196E1,1.4607147E1,5.78315E0,9.132687E0,1.7162216E1,0E0,0E0,0E0,0E0,0E0,0E0,0E0,0E0,0E0,0E0,0E0,0E0,0E0,0E0,0E0,0E0],"parents":[2147483647,0,0,1,1,2,2,3,3,4,4,5,5,6,6,7,7,8,8,9,9,10,10,11,11,12,12,13,13,14,14],"right_children":[2,4,6,8,10,12,14,16,18,20,22,24,26,28,30,-1,-1,-1,-1,-1,-1,-1,-1,-1,-1,-1,-1,-1,-1,-1,-1],"split_conditions":[4.91167E1,8.660254E-1,1.621333E2,2.54E0,8.000007E0,1E0,6.123234E-17,5E-1,-1.8369701E-16,6.66666E0,1.0335653E1,7.8994E1,5.731663E1,6.22E1,7.8994E1,-6.422431E-3,-1.5167735E-3,-2.6579334E-3,3.906056E-3,5.381106E-3,-8.612525E-3,3.0520666E-2,1.3112678E-2,2.257393E-2,3.39055E-3,-9.928737E-3,7.812038E-3,2.8599232E-2,-3.3109345E-2,3.0027827E-2,6.5382145E-2],"split_indices":[3,7,3,2,2,4,7,7,7,2,2,2,3,5,2,0,0,0,0,0,0,0,0,0,0,0,0,0,0,0,0],"split_type":[0,0,0,0,0,0,0,0,0,0,0,0,0,0,0,0,0,0,0,0,0,0,0,0,0,0,0,0,0,0,0],"sum_hessian":[2.1432E4,1.9957E4,1.475E3,1.5595E4,4.362E3,1.309E3,1.66E2,9.96E3,5.635E3,3.407E3,9.55E2,1.078E3,2.31E2,2.3E1,1.43E2,7.988E3,1.972E3,3.043E3,2.592E3,3.234E3,1.73E2,2.31E2,7.24E2,9.67E2,1.11E2,6.2E1,1.69E2,1.4E1,9E0,6.9E1,7.4E1],"tree_param":{"num_deleted":"0","num_feature":"8","num_nodes":"31","size_leaf_vector":"1"}},{"base_weights":[2.723533E-3,-2.4167387E-2,3.922307E-1,-8.933377E-2,8.013418E-2,3.0082443E-1,7.0939523E-1,-1.167561E-1,2.890366E-2,5.8948528E-2,2.745713E-1,1.6342537E-1,2.9500708E-1,1.32671E0,6.6421986E-1,-3.909654E-3,-7.4617825E-3,3.1140614E-2,9.0984796E-4,3.1086192E-3,-4.1717682E-2,1.2941062E-2,6.1409723E-2,1.3274729E-2,3.9417986E-2,2.8527765E-2,8.0501124E-2,-2.142972E-2,3.5655465E-2],"categories":[],"categories_nodes":[],"categories_segments":[],"categories_sizes":[],"default_left":[0,0,0,0,0,0,0,0,0,0,0,0,0,0,0,0,0,0,0,0,0,0,0,0,0,0,0,0,0],"id":25,"left_children":[1,3,5,7,9,11,13,15,17,19,21,-1,23,25,27,-1,-1,-1,-1,-1,-1,-1,-1,-1,-1,-1,-1,-1,-1],"loss_changes":[2.2382231E2,1.3587152E2,3.979393E1,3.989396E1,3.1648705E1,1.7560066E1,7.7080994E0,1.2497131E1,1.4722011E1,2.0018051E1,1.1021938E1,0E0,1.5399086E1,3.3659515E0,1.5746048E1,0E0,0E0,0E0,0E0,0E0,0E0,0E0,0E0,0E0,0E0,0E0,0E0,0E0,0E0],"parents":[2147483647,0,0,1,1,2,2,3,3,4,4,5,5,6,6,7,7,8,8,9,9,10,10,12,12,13,13,14,14],"right_children":[2,4,6,8,10,12,14,16,18,20,22,-1,24,26,28,-1,-1,-1,-1,-1,-1,-1,-1,-1,-1,-1,-1,-1,-1],"split_conditions":[1.6002E1,5E-1,9.5799995E1,1.4240413E1,3.6816463E1,8.14125E0,2.15333E1,-2.4492937E-16,1.45E1,2.5566633E1,1.5430442E1,1.6342537E-1,5.89E1,5E-1,2.25E1,-3.909654E-3,-7.4617825E-3,3.1140614E-2,9.0984796E-4,3.1086192E-3,-4.1717682E-2,1.2941062E-2,6.1409723E-2,1.3274729E-2,3.9417986E-2,2.8527765E-2,8.0501124E-2,-2.142972E-2,3.5655465E-2],"split_indices":[1,7,3,3,3,5,5,6,3,2,1,0,1,7,5,0,0,0,0,0,0,0,0,0,0,0,0,0,0],"split_type":[0,0,0,0,0,0,0,0,0,0,0,0,0,0,0,0,0,0,0,0,0,0,0,0,0,0,0,0,0],"sum_hessian":[2.1367E4,1.9988E4,1.379E3,1.2302E4,7.686E3,1.072E3,3.07E2,9.986E3,2.316E3,6.932E3,7.54E2,1E0,1.071E3,1.9E1,2.88E2,4.567E3,5.419E3,4E1,2.276E3,6.908E3,2.4E1,7.43E2,1.1E1,1.012E3,5.9E1,6E0,1.3E1,1.2E1,2.76E2],"tree_param":{"num_deleted":"0","num_feature":"8","num_nodes":"29","size_leaf_vector":"1"}},{"base_weights":[1.5833045E-3,-1.09858945E-1,8.845512E-2,-1.3375683E-1,4.765168E-3,5.771917E-2,4.986634E-1,-1.3921282E-1,3.2226354E-1,2.7357483E-1,-4.225072E-2,-5.8014663E-3,1.2032761E-1,2.1448803E0,4.6605328E-1,-8.564792E-3,-4.5607626E-3,2.0903273E-2,-4.5038458E-2,-3.8989217E-3,2.5546327E-2,-1.9890739E-2,-2.4470195E-4,-2.7483902E-3,5.242388E-3,5.2904002E-3,2.053249E-2,1.4061366E-1,-2.8018344E-2,1.8204484E-2,4.914965E-2],"categories":[],"categories_nodes":[],"categories_segments":[],"categories_sizes":[],"default_left":[0,0,0,0,0,0,0,0,0,0,0,0,0,0,0,0,0,0,0,0,0,0,0,0,0,0,0,0,0,0,0],"id":26,"left_children":[1,3,5,7,9,11,13,15,17,19,21,23,25,27,29,-1,-1,-1,-1,-1,-1,-1,-1,-1,-1,-1,-1,-1,-1,-1,-1],"loss_changes":[2.0714847E2,2.567585E1,1.515715E2,1.9342102E1,2.046037E1,4.4490585E1,4.3987E1,1.17877655E1,1.1156117E1,2.0149307E1,1.8301603E1,3.0220726E1,2.3705894E1,3.046331E1,4.3021637E1,0E0,0E0,0E0,0E0,0E0,0E0,0E0,0E0,0E0,0E0,0E0,0E0,0E0,0E0,0E0,0E0],"parents":[2147483647,0,0,1,1,2,2,3,3,4,4,5,5,6,6,7,7,8,8,9,9,10,10,11,11,12,12,13,13,14,14],"right_children":[2,4,6,8,10,12,14,16,18,20,22,24,26,28,30,-1,-1,-1,-1,-1,-1,-1,-1,-1,-1,-1,-1,-1,-1,-1,-1],"split_conditions":[-1.8369701E-16,1.98333E0,9.56667E0,5.46333E1,2.55E0,2.1695906E-1,1.1895171E1,-5E-1,1.43333E0,2.25E0,6.7875E0,8.1E0,8.382E1,8.660254E-1,3.68333E1,-8.564792E-3,-4.5607626E-3,2.0903273E-2,-4.5038458E-2,-3.8989217E-3,2.5546327E-2,-1.9890739E-2,-2.4470195E-4,-2.7483902E-3,5.242388E-3,5.2904002E-3,2.053249E-2,1.4061366E-1,-2.8018344E-2,1.8204484E-2,4.914965E-2],"split_indices":[7,0,0,3,5,0,3,7,0,5,3,3,3,7,0,0,0,0,0,0,0,0,0,0,0,0,0,0,0,0,0],"split_type":[0,0,0,0,0,0,0,0,0,0,0,0,0,0,0,0,0,0,0,0,0,0,0,0,0,0,0,0,0,0,0],"sum_hessian":[2.1395E4,9.372E3,1.2023E4,7.755E3,1.617E3,1.1186E4,8.37E2,7.664E3,9.1E1,2.4E2,1.377E3,5.553E3,5.633E3,1.5E1,8.22E2,4.592E3,3.072E3,8.5E1,6E0,9.7E1,1.43E2,1.3E2,1.247E3,3.845E3,1.708E3,5.366E3,2.67E2,1.2E1,3E0,6.88E2,1.34E2],"tree_param":{"num_deleted":"0","num_feature":"8","num_nodes":"31","size_leaf_vector":"1"}},{"base_weights":[-2.3565618E-3,-2.6963562E-2,4.093089E-1,-3.6377322E-2,4.1597205E-1,3.3968532E-1,8.5718656E-1,-5.546941E-2,1.0042232E-1,1.0576478E0,3.8133076E-1,9.1805273E-1,3.1462622E-1,-2.8253064E-1,9.1822726E-1,-1.1323738E-3,-4.470713E-3,4.2437878E-2,3.7765317E-3,7.4485E-2,-9.635176E-4,6.280541E-3,2.6846422E-2,3.1935718E-2,1.1317028E-1,-7.5777876E-3,1.8601377E-2,2.484127E-2,-6.90466E-2,6.1589766E-2,3.4380276E-2],"categories":[],"categories_nodes":[],"categories_segments":[],"categories_sizes":[],"default_left":[0,0,0,0,0,0,0,0,0,0,0,0,0,0,0,0,0,0,0,0,0,0,0,0,0,0,0,0,0,0,0],"id":27,"left_children":[1,3,5,7,9,11,13,15,17,19,21,23,25,27,29,-1,-1,-1,-1,-1,-1,-1,-1,-1,-1,-1,-1,-1,-1,-1,-1],"loss_changes":[2.171343E2,8.435127E1,3.7408875E1,5.17347E1,8.95488E0,1.490023E1,1.1529625E1,1.9362762E1,4.5125782E1,9.799683E0,1.5888119E1,1.4714111E1,2.6976387E1,8.390492E0,1.0289612E1,0E0,0E0,0E0,0E0,0E0,0E0,0E0,0E0,0E0,0E0,0E0,0E0,0E0,0E0,0E0,0E0],"parents":[2147483647,0,0,1,1,2,2,3,3,4,4,5,5,6,6,7,7,8,8,9,9,10,10,11,11,12,12,13,13,14,14],"right_children":[2,4,6,8,10,12,14,16,18,20,22,24,26,28,30,-1,-1,-1,-1,-1,-1,-1,-1,-1,-1,-1,-1,-1,-1,-1,-1],"split_conditions":[8.46667E0,8.382E1,1.12133224E2,2.54E0,2.5901625E-1,1.3065565E1,1.0282941E1,1.2246469E-16,2.5837338E0,1.12133224E2,6E-1,1E0,1.9099997E1,9.56667E0,1.2246469E-16,-1.1323738E-3,-4.470713E-3,4.2437878E-2,3.7765317E-3,7.4485E-2,-9.635176E-4,6.280541E-3,2.6846422E-2,3.1935718E-2,1.1317028E-1,-7.5777876E-3,1.8601377E-2,2.484127E-2,-6.90466E-2,6.1589766E-2,3.4380276E-2],"split_indices":[0,3,3,0,5,3,0,6,0,3,0,6,3,0,6,0,0,0,0,0,0,0,0,0,0,0,0,0,0,0,0],"split_type":[0,0,0,0,0,0,0,0,0,0,0,0,0,0,0,0,0,0,0,0,0,0,0,0,0,0,0,0,0,0,0],"sum_hessian":[2.1433E4,2.0225E4,1.208E3,1.9805E4,4.2E2,1.047E3,1.61E2,1.738E4,2.425E3,2E1,4E2,4.2E1,1.005E3,8E0,1.53E2,8.837E3,8.543E3,7.7E1,2.348E3,1.4E1,6E0,1.52E2,2.48E2,3.6E1,6E0,1.1E2,8.95E2,5E0,3E0,6.3E1,9E1],"tree_param":{"num_deleted":"0","num_feature":"8","num_nodes":"31","size_leaf_vector":"1"}},{"base_weights":[2.0484359E-3,-3.0002445E-2,2.7167115E-1,-6.7879245E-2,1.06461905E-1,1.9266085E-1,5.89037E-1,-1.0865948E-1,-1.1417476E-2,7.429838E-2,3.1893572E-1,2.1453261E-1,-4.397587E-1,4.6933672E-1,9.429252E-1,-5.60547E-3,2.4994845E-2,-1.6442493E-3,1.0567899E-2,3.967283E-3,-4.4017944E-2,1.0726684E-3,1.9757306E-2,9.439801E-3,6.1740894E-2,-4.4311408E-2,1.1930323E-2,1.119823E-2,3.6185335E-2,7.9191975E-2,2.3962757E-2],"categories":[],"categories_nodes":[],"categories_segments":[],"categories_sizes":[],"default_left":[0,0,0,0,0,0,0,0,0,0,0,0,0,0,0,0,0,0,0,0,0,0,0,0,0,0,0,0,0,0,0],"id":28,"left_children":[1,3,5,7,9,11,13,15,17,19,21,23,25,27,29,-1,-1,-1,-1,-1,-1,-1,-1,-1,-1,-1,-1,-1,-1,-1,-1],"loss_changes":[1.8423076E2,9.849416E1,5.6681778E1,3.434091E1,2.8268684E1,2.5199654E1,1.8662048E1,1.8237389E1,2.992586E1,1.7401693E1,1.23246765E1,4.5850845E1,1.8686487E1,2.0996696E1,3.2821457E1,0E0,0E0,0E0,0E0,0E0,0E0,0E0,0E0,0E0,0E0,0E0,0E0,0E0,0E0,0E0,0E0],"parents":[2147483647,0,0,1,1,2,2,3,3,4,4,5,5,6,6,7,7,8,8,9,9,10,10,11,11,12,12,13,13,14,14],"right_children":[2,4,6,8,10,12,14,16,18,20,22,24,26,28,30,-1,-1,-1,-1,-1,-1,-1,-1,-1,-1,-1,-1,-1,-1,-1,-1],"split_conditions":[4.7459526E0,8.660254E-1,6.7222084E1,-1.8369701E-16,3.517077E1,3.37056E1,3.68333E1,1.293333E1,3.434805E1,2.5566633E1,1.563103E-1,2.63E1,8.660254E-1,1.02616E2,7.8994E1,-5.60547E-3,2.4994845E-2,-1.6442493E-3,1.0567899E-2,3.967283E-3,-4.4017944E-2,1.0726684E-3,1.9757306E-2,9.439801E-3,6.1740894E-2,-4.4311408E-2,1.1930323E-2,1.119823E-2,3.6185335E-2,7.9191975E-2,2.3962757E-2],"split_indices":[0,7,3,7,3,5,0,1,3,2,1,0,7,3,2,0,0,0,0,0,0,0,0,0,0,0,0,0,0,0,0],"split_type":[0,0,0,0,0,0,0,0,0,0,0,0,0,0,0,0,0,0,0,0,0,0,0,0,0,0,0,0,0,0,0],"sum_hessian":[2.1317E4,1.9053E4,2.264E3,1.4914E4,4.139E3,1.814E3,4.5E2,8.659E3,6.255E3,3.596E3,5.43E2,1.754E3,6E1,3.38E2,1.12E2,8.611E3,4.8E1,5.706E3,5.49E2,3.578E3,1.8E1,1.11E2,4.32E2,1.712E3,4.2E1,3.6E1,2.4E1,1.73E2,1.65E2,4.6E1,6.6E1],"tree_param":{"num_deleted":"0","num_feature":"8","num_nodes":"31","size_leaf_vector":"1"}},{"base_weights":[2.335508E-3,-1.7626336E-2,4.6432623E-1,-7.59014E-2,4.1649096E-2,2.2713056E-1,6.7772245E-1,-7.7515386E-2,1.325986E0,2.4869053E-2,2.5060412E-1,1.2700848E-1,4.7029817E-1,3.4101126E0,6.46818E-1,-2.1058936E-3,-5.7070167E-3,-9.097111E-3,8.2288295E-2,-5.346257E-4,4.0684654E-3,1.0907847E-2,4.141942E-2,-7.787136E-3,1.6573966E-2,1.2018229E-1,1.9255651E-2,2.1523213E-1,6.894391E-2,2.8188461E-2,6.6159315E-2],"categories":[],"categories_nodes":[],"categories_segments":[],"categories_sizes":[],"default_left":[0,0,0,0,0,0,0,0,0,0,0,0,0,0,0,0,0,0,0,0,0,0,0,0,0,0,0,0,0,0,0],"id":29,"left_children":[1,3,5,7,9,11,13,15,17,19,21,23,25,27,29,-1,-1,-1,-1,-1,-1,-1,-1,-1,-1,-1,-1,-1,-1,-1,-1],"loss_changes":[1.9816531E2,7.115441E1,4.4894897E1,2.3604725E1,3.5799835E1,1.0238813E1,3.731363E1,1.3446972E1,6.0858955E0,1.8996199E1,1.4048618E1,1.745375E1,1.9331509E1,3.1494217E0,2.5317627E1,0E0,0E0,0E0,0E0,0E0,0E0,0E0,0E0,0E0,0E0,0E0,0E0,0E0,0E0,0E0,0E0],"parents":[2147483647,0,0,1,1,2,2,3,3,4,4,5,5,6,6,7,7,8,8,9,9,10,10,11,11,12,12,13,13,14,14],"right_children":[2,4,6,8,10,12,14,16,18,20,22,24,26,28,30,-1,-1,-1,-1,-1,-1,-1,-1,-1,-1,-1,-1,-1,-1,-1,-1],"split_conditions":[2.249997E1,5.4378734E0,1.60871E1,5.1414704E0,5.2616417E1,1.02616E2,1.62042E1,1.2246469E-16,3.4094136E-2,1.5555743E0,1.9304E2,5E-1,2.35191E1,2.50333E1,1.621333E2,-2.1058936E-3,-5.7070167E-3,-9.097111E-3,8.2288295E-2,-5.346257E-4,4.0684654E-3,1.0907847E-2,4.141942E-2,-7.787136E-3,1.6573966E-2,1.2018229E-1,1.9255651E-2,2.1523213E-1,6.894391E-2,2.8188461E-2,6.6159315E-2],"split_indices":[1,3,0,5,3,3,5,6,0,0,3,6,1,1,3,0,0,0,0,0,0,0,0,0,0,0,0,0,0,0,0],"split_type":[0,0,0,0,0,0,0,0,0,0,0,0,0,0,0,0,0,0,0,0,0,0,0,0,0,0,0,0,0,0,0],"sum_hessian":[2.1486E4,2.0597E4,8.89E2,1.0386E4,1.0211E4,4.22E2,4.67E2,1.0375E4,1.1E1,9.453E3,7.58E2,3E2,1.22E2,4E0,4.63E2,5.277E3,5.098E3,2E0,9E0,5.802E3,3.651E3,7.19E2,3.9E1,1.26E2,1.74E2,4E0,1.18E2,2E0,2E0,4.14E2,4.9E1],"tree_param":{"num_deleted":"0","num_feature":"8","num_nodes":"31","size_leaf_vector":"1"}},{"base_weights":[-3.950356E-3,-8.054365E-2,7.885116E-2,-9.801208E-2,3.376896E-2,5.8785014E-2,5.230728E-1,-6.7213304E-2,-1.2947683E-1,8.3958715E-1,1.0061377E-2,1.1641906E-2,1.6468936E-1,4.4760507E-1,1.1347837E0,-3.5745052E-3,2.622695E-2,-6.202083E-3,-2.3818627E-2,8.2120165E-2,3.0119164E-2,-1.7420959E-3,1.4635876E-2,-3.1341927E-4,8.913982E-3,-1.546299E-3,1.04451915E-2,1.0016494E-1,2.0926734E-2,3.835914E-2,9.110185E-2],"categories":[],"categories_nodes":[],"categories_segments":[],"categories_sizes":[],"default_left":[0,0,0,0,0,0,0,0,0,0,0,0,0,0,0,0,0,0,0,0,0,0,0,0,0,0,0,0,0,0,0],"id":30,"left_children":[1,3,5,7,9,11,13,15,17,19,21,23,25,27,29,-1,-1,-1,-1,-1,-1,-1,-1,-1,-1,-1,-1,-1,-1,-1,-1],"loss_changes":[1.3532014E2,2.213652E1,9.1362625E1,9.30896E0,2.807443E1,4.898107E1,1.9942894E1,1.2339746E1,8.906158E0,7.0087547E0,1.814734E1,2.0266077E1,2.6143822E1,1.707051E1,1.07286415E1,0E0,0E0,0E0,0E0,0E0,0E0,0E0,0E0,0E0,0E0,0E0,0E0,0E0,0E0,0E0,0E0],"parents":[2147483647,0,0,1,1,2,2,3,3,4,4,5,5,6,6,7,7,8,8,9,9,10,10,11,11,12,12,13,13,14,14],"right_children":[2,4,6,8,10,12,14,16,18,20,22,24,26,28,30,-1,-1,-1,-1,-1,-1,-1,-1,-1,-1,-1,-1,-1,-1,-1,-1],"split_conditions":[6.123234E-17,2.54E0,1.60871E1,-2.4492937E-16,2.5837338E0,1.10833E0,1.621333E2,2.46667E0,2.3544474E0,2.564121E0,4.306664E1,3.517077E1,-5E-1,1.62042E1,5.74333E1,-3.5745052E-3,2.622695E-2,-6.202083E-3,-2.3818627E-2,8.2120165E-2,3.0119164E-2,-1.7420959E-3,1.4635876E-2,-3.1341927E-4,8.913982E-3,-1.546299E-3,1.04451915E-2,1.0016494E-1,2.0926734E-2,3.835914E-2,9.110185E-2],"split_indices":[7,0,0,6,0,0,3,0,0,2,3,3,6,5,0,0,0,0,0,0,0,0,0,0,0,0,0,0,0,0,0],"split_type":[0,0,0,0,0,0,0,0,0,0,0,0,0,0,0,0,0,0,0,0,0,0,0,0,0,0,0,0,0,0,0],"sum_hessian":[2.1335E4,1.1083E4,1.0252E4,9.614E3,1.469E3,9.81E3,4.42E2,4.86E3,4.754E3,4.1E1,1.428E3,6.789E3,3.021E3,3.95E2,4.7E1,4.826E3,3.4E1,4.682E3,7.2E1,8E0,3.3E1,1.233E3,1.95E2,6.131E3,6.58E2,5.57E2,2.464E3,6E0,3.89E2,3.2E1,1.5E1],"tree_param":{"num_deleted":"0","num_feature":"8","num_nodes":"31","size_leaf_vector":"1"}},{"base_weights":[3.3221138E-4,-4.230681E-2,1.5108767E-1,-8.662498E-2,3.899932E-2,1.2249654E-1,5.62736E-1,-1.04831256E-1,-2.2266367E-2,-1.058302E-2,9.875112E-2,9.5215954E-2,4.301448E-1,-3.1959438E-1,6.7056197E-1,-5.36608E-3,1.4498137E-2,-4.439704E-4,-1.6701864E-2,-1.8251939E-3,6.5146047E-3,7.3101707E-3,7.292309E-4,-1.3998924E-4,7.176044E-3,8.2761375E-3,2.7951196E-2,4.783526E-2,-4.456243E-2,5.579376E-2,2.4335712E-2],"categories":[],"categories_nodes":[],"categories_segments":[],"categories_sizes":[],"default_left":[0,0,0,0,0,0,0,0,0,0,0,0,0,0,0,0,0,0,0,0,0,0,0,0,0,0,0,0,0,0,0],"id":31,"left_children":[1,3,5,7,9,11,13,15,17,19,21,23,25,27,29,-1,-1,-1,-1,-1,-1,-1,-1,-1,-1,-1,-1,-1,-1,-1,-1],"loss_changes":[1.3749628E2,6.008545E1,5.543598E1,1.264299E1,1.7430222E1,3.697979E1,2.9326584E1,8.301559E0,9.934529E0,1.1748312E1,1.0653578E1,1.9189907E1,1.2150902E1,2.5659132E1,2.1807335E1,0E0,0E0,0E0,0E0,0E0,0E0,0E0,0E0,0E0,0E0,0E0,0E0,0E0,0E0,0E0,0E0],"parents":[2147483647,0,0,1,1,2,2,3,3,4,4,5,5,6,6,7,7,8,8,9,9,10,10,11,11,12,12,13,13,14,14],"right_children":[2,4,6,8,10,12,14,16,18,20,22,24,26,28,30,-1,-1,-1,-1,-1,-1,-1,-1,-1,-1,-1,-1,-1,-1,-1,-1],"split_conditions":[1.9099997E1,5E-1,2.39E1,8.579163E0,2.1695906E-1,1.02616E2,3.434805E1,4.7459526E0,1.146667E1,9.652E0,4.36667E0,2.504163E0,1.72E1,2.50333E1,3.07583E1,-5.36608E-3,1.4498137E-2,-4.439704E-4,-1.6701864E-2,-1.8251939E-3,6.5146047E-3,7.3101707E-3,7.292309E-4,-1.3998924E-4,7.176044E-3,8.2761375E-3,2.7951196E-2,4.783526E-2,-4.456243E-2,5.579376E-2,2.4335712E-2],"split_indices":[3,7,0,3,0,3,3,0,1,3,2,1,2,1,0,0,0,0,0,0,0,0,0,0,0,0,0,0,0,0,0],"split_type":[0,0,0,0,0,0,0,0,0,0,0,0,0,0,0,0,0,0,0,0,0,0,0,0,0,0,0,0,0,0,0],"sum_hessian":[2.1388E4,1.6673E4,4.715E3,1.0791E4,5.882E3,4.41E3,3.05E2,8.411E3,2.38E3,3.215E3,2.667E3,4.052E3,3.58E2,3.3E1,2.72E2,8.359E3,5.2E1,2.283E3,9.7E1,2.716E3,4.99E2,1.705E3,9.62E2,1.338E3,2.714E3,1.18E2,2.4E2,1E1,2.3E1,7.8E1,1.94E2],"tree_param":{"num_deleted":"0","num_feature":"8","num_nodes":"31","size_leaf_vector":"1"}},{"base_weights":[6.2507405E-3,-2.3141414E-2,2.3072115E-1,-6.977654E-2,5.5749148E-2,1.7727606E-1,5.601726E-1,-9.6231766E-2,-1.1901201E-2,-1.082444E-2,1.23299815E-1,1.051207E-1,3.3309987E-1,1.7125914E-1,5.3348106E-1,-4.9209646E-3,2.4003599E-2,2.1853603E-3,-3.1422824E-3,-2.052831E-3,4.3776077E-3,4.711152E-3,1.4717813E-2,7.1012625E-3,-1.4478281E-2,8.642751E-3,2.2868631E-2,2.9651398E-2,-7.880058E-3],"categories":[],"categories_nodes":[],"categories_segments":[],"categories_sizes":[],"default_left":[0,0,0,0,0,0,0,0,0,0,0,0,0,0,0,0,0,0,0,0,0,0,0,0,0,0,0,0,0],"id":32,"left_children":[1,3,5,7,9,11,13,15,17,19,21,23,25,-1,27,-1,-1,-1,-1,-1,-1,-1,-1,-1,-1,-1,-1,-1,-1],"loss_changes":[1.4103711E2,6.954569E1,4.34794E1,1.8188393E1,3.1584398E1,2.3924934E1,2.4555428E1,1.0325508E1,1.0563946E1,1.0526097E1,1.7310833E1,2.1277946E1,1.3343018E1,0E0,1.4208527E1,0E0,0E0,0E0,0E0,0E0,0E0,0E0,0E0,0E0,0E0,0E0,0E0,0E0,0E0],"parents":[2147483647,0,0,1,1,2,2,3,3,4,4,5,5,6,6,7,7,8,8,9,9,10,10,11,11,12,12,14,14],"right_children":[2,4,6,8,10,12,14,16,18,20,22,24,26,-1,28,-1,-1,-1,-1,-1,-1,-1,-1,-1,-1,-1,-1,-1,-1],"split_conditions":[3.434805E1,5E-1,2.01875E1,2.7448108E0,2.1695906E-1,7.0800995E1,2.03333E1,2.54E0,3.4E0,9.906E0,5.7127447E0,6.290003E1,1.16667E0,1.7125914E-1,1E0,-4.9209646E-3,2.4003599E-2,2.1853603E-3,-3.1422824E-3,-2.052831E-3,4.3776077E-3,4.711152E-3,1.4717813E-2,7.1012625E-3,-1.4478281E-2,8.642751E-3,2.2868631E-2,2.9651398E-2,-7.880058E-3],"split_indices":[3,7,0,2,0,3,5,5,5,3,0,3,0,0,7,0,0,0,0,0,0,0,0,0,0,0,0,0,0],"split_type":[0,0,0,0,0,0,0,0,0,0,0,0,0,0,0,0,0,0,0,0,0,0,0,0,0,0,0,0,0],"sum_hessian":[2.1375E4,1.8901E4,2.474E3,1.1879E4,7.022E3,2.13E3,3.44E2,8.152E3,3.727E3,3.537E3,3.485E3,1.457E3,6.73E2,2E0,3.42E2,8.122E3,3E1,1.782E3,1.945E3,2.706E3,8.31E2,2.98E3,5.05E2,1.333E3,1.24E2,2.95E2,3.78E2,3.15E2,2.7E1],"tree_param":{"num_deleted":"0","num_feature":"8","num_nodes":"29","size_leaf_vector":"1"}},{"base_weights":[-2.6588307E-3,-2.090602E-2,2.7499375E-1,-5.669419E-2,1.0458225E-1,1.9692801E-1,4.754423E-1,-9.375497E-2,-8.689293E-3,9.859033E-2,6.3037926E-1,2.2762965E-1,-9.493658E-1,3.3683184E-1,7.71109E-1,-7.264867E-3,-3.2628574E-3,-2.8623021E-3,2.5289853E-3,5.22331E-3,-2.2423176E-2,4.002604E-2,-1.8146444E-2,-3.7727847E-3,1.4335178E-2,1.0863758E-2,-7.075652E-2,3.326658E-2,7.5684907E-3,7.610684E-2,1.5706578E-2],"categories":[],"categories_nodes":[],"categories_segments":[],"categories_sizes":[],"default_left":[0,0,0,0,0,0,0,0,0,0,0,0,0,0,0,0,0,0,0,0,0,0,0,0,0,0,0,0,0,0,0],"id":33,"left_children":[1,3,5,7,9,11,13,15,17,19,21,23,25,27,29,-1,-1,-1,-1,-1,-1,-1,-1,-1,-1,-1,-1,-1,-1,-1,-1],"loss_changes":[1.0836546E2,9.014021E1,2.0546288E1,2.7783371E1,1.3970337E1,3.3684734E1,1.4862808E1,1.2935448E1,1.958707E1,1.4206371E1,8.740679E0,1.6619045E1,1.389197E1,1.5313124E1,3.967656E1,0E0,0E0,0E0,0E0,0E0,0E0,0E0,0E0,0E0,0E0,0E0,0E0,0E0,0E0,0E0,0E0],"parents":[2147483647,0,0,1,1,2,2,3,3,4,4,5,5,6,6,7,7,8,8,9,9,10,10,11,11,12,12,13,13,14,14],"right_children":[2,4,6,8,10,12,14,16,18,20,22,24,26,28,30,-1,-1,-1,-1,-1,-1,-1,-1,-1,-1,-1,-1,-1,-1,-1,-1],"split_conditions":[7.86667E0,8.660254E-1,6.7222084E1,8.9169806E-1,1.621333E2,6.290003E1,3.68333E1,-5E-1,-1.8369701E-16,1.26746E2,3.96667E0,-5E-1,5E-1,1.40667E1,7.8994E1,-7.264867E-3,-3.2628574E-3,-2.8623021E-3,2.5289853E-3,5.22331E-3,-2.2423176E-2,4.002604E-2,-1.8146444E-2,-3.7727847E-3,1.4335178E-2,1.0863758E-2,-7.075652E-2,3.326658E-2,7.5684907E-3,7.610684E-2,1.5706578E-2],"split_indices":[0,7,3,1,3,3,0,7,7,3,0,7,7,0,2,0,0,0,0,0,0,0,0,0,0,0,0,0,0,0,0],"split_type":[0,0,0,0,0,0,0,0,0,0,0,0,0,0,0,0,0,0,0,0,0,0,0,0,0,0,0,0,0,0,0],"sum_hessian":[2.1387E4,2.0069E4,1.318E3,1.5616E4,4.453E3,9.5E2,3.68E2,8.812E3,6.804E3,4.404E3,4.9E1,9.26E2,2.4E1,2.52E2,1.16E2,3.136E3,5.676E3,3.74E3,3.064E3,4.358E3,4.6E1,4.2E1,7E0,1.51E2,7.75E2,7E0,1.7E1,9E1,1.62E2,4.3E1,7.3E1],"tree_param":{"num_deleted":"0","num_feature":"8","num_nodes":"31","size_leaf_vector":"1"}},{"base_weights":[-3.3334084E-4,-4.1168064E-2,1.356277E-1,-4.8493706E-2,4.440242E-1,1.0713229E-1,4.6670341E-1,-6.038487E-2,9.09239E-2,1.0311406E-1,8.071731E-1,3.299698E-2,1.7222878E-1,4.2742872E-1,1.5727897E0,-5.5868537E-3,-1.6637184E-3,5.2503543E-3,-3.3859763E-2,1.5757859E-2,-2.5521887E-2,6.797778E-2,1.343623E-2,1.0585403E-3,2.0053972E-2,9.002122E-3,-3.635506E-2,2.6672572E-2,-4.4560118E-5,1.1142769E-1,-2.2990882E-2],"categories":[],"categories_nodes":[],"categories_segments":[],"categories_sizes":[],"default_left":[0,0,0,0,0,0,0,0,0,0,0,0,0,0,0,0,0,0,0,0,0,0,0,0,0,0,0,0,0,0,0],"id":34,"left_children":[1,3,5,7,9,11,13,15,17,19,21,23,25,27,29,-1,-1,-1,-1,-1,-1,-1,-1,-1,-1,-1,-1,-1,-1,-1,-1],"loss_changes":[1.1838386E2,5.8305683E1,4.6413124E1,2.6787857E1,3.0124245E1,2.1884811E1,1.6269806E1,2.0720337E1,1.3809417E1,1.6683496E1,3.473134E1,9.228589E0,1.7101242E1,1.7166077E1,1.8352566E1,0E0,0E0,0E0,0E0,0E0,0E0,0E0,0E0,0E0,0E0,0E0,0E0,0E0,0E0,0E0,0E0],"parents":[2147483647,0,0,1,1,2,2,3,3,4,4,5,5,6,6,7,7,8,8,9,9,10,10,11,11,12,12,13,13,14,14],"right_children":[2,4,6,8,10,12,14,16,18,20,22,24,26,28,30,-1,-1,-1,-1,-1,-1,-1,-1,-1,-1,-1,-1,-1,-1,-1,-1],"split_conditions":[8.660254E-1,5.349997E1,1.07958E1,4.7459526E0,2.17E1,2.0056938E-1,5.74333E1,-5E-1,3.68333E1,1.3168427E1,7.15E1,1.5E1,4.62E1,5.22042E1,1.2246469E-16,-5.5868537E-3,-1.6637184E-3,5.2503543E-3,-3.3859763E-2,1.5757859E-2,-2.5521887E-2,6.797778E-2,1.343623E-2,1.0585403E-3,2.0053972E-2,9.002122E-3,-3.635506E-2,2.6672572E-2,-4.4560118E-5,1.1142769E-1,-2.2990882E-2],"split_indices":[7,2,0,0,0,0,0,7,0,0,1,4,1,1,6,0,0,0,0,0,0,0,0,0,0,0,0,0,0,0,0],"split_type":[0,0,0,0,0,0,0,0,0,0,0,0,0,0,0,0,0,0,0,0,0,0,0,0,0,0,0,0,0,0,0],"sum_hessian":[2.1321E4,1.6397E4,4.924E3,1.6154E4,2.43E2,4.535E3,3.89E2,1.4885E4,1.269E3,1.26E2,1.17E2,2.121E3,2.414E3,3.77E2,1.2E1,5.142E3,9.743E3,1.247E3,2.2E1,9.4E1,3.2E1,5.7E1,6E1,2.056E3,6.5E1,2.394E3,2E1,3.02E2,7.5E1,9E0,3E0],"tree_param":{"num_deleted":"0","num_feature":"8","num_nodes":"31","size_leaf_vector":"1"}},{"base_weights":[8.813062E-3,-6.5320157E-3,3.662827E-1,-7.6049134E-2,4.9613718E-2,1.4441913E-1,5.139198E-1,-8.0109835E-2,2.1506526E-1,2.5218764E-2,1.4416859E-1,7.935339E-2,5.1367384E-1,8.9000356E-1,4.245964E-1,-3.7552044E-3,-1.4364339E-2,6.0855015E-3,4.275551E-2,5.016906E-4,9.339118E-3,1.3479303E-2,3.8775683E-3,8.090455E-3,-2.6834393E-2,1.0859477E-1,2.0302968E-2,5.2021302E-2,-2.1765498E-2,1.3853888E-1,1.8683694E-2],"categories":[],"categories_nodes":[],"categories_segments":[],"categories_sizes":[],"default_left":[0,0,0,0,0,0,0,0,0,0,0,0,0,0,0,0,0,0,0,0,0,0,0,0,0,0,0,0,0,0,0],"id":35,"left_children":[1,3,5,7,9,11,13,15,17,19,21,23,25,27,29,-1,-1,-1,-1,-1,-1,-1,-1,-1,-1,-1,-1,-1,-1,-1,-1],"loss_changes":[1.1794396E2,8.0473785E1,2.8914223E1,1.0906979E1,2.6306145E1,8.488408E0,1.7460022E1,9.401291E0,7.4843693E0,2.2244974E1,1.9521355E1,1.5478066E1,8.575859E0,2.058796E1,5.0457718E1,0E0,0E0,0E0,0E0,0E0,0E0,0E0,0E0,0E0,0E0,0E0,0E0,0E0,0E0,0E0,0E0],"parents":[2147483647,0,0,1,1,2,2,3,3,4,4,5,5,6,6,7,7,8,8,9,9,10,10,11,11,12,12,13,13,14,14],"right_children":[2,4,6,8,10,12,14,16,18,20,22,24,26,28,30,-1,-1,-1,-1,-1,-1,-1,-1,-1,-1,-1,-1,-1,-1,-1,-1],"split_conditions":[2.249997E1,-1.8369701E-16,1.3168427E1,5.46333E1,1.875E0,1.397E2,2.8132565E1,1.0880745E1,6.06667E0,3.434805E1,4.3E0,4.62E1,2.35191E1,2.593148E1,3.1169455E1,-3.7552044E-3,-1.4364339E-2,6.0855015E-3,4.275551E-2,5.016906E-4,9.339118E-3,1.3479303E-2,3.8775683E-3,8.090455E-3,-2.6834393E-2,1.0859477E-1,2.0302968E-2,5.2021302E-2,-2.1765498E-2,1.3853888E-1,1.8683694E-2],"split_indices":[1,7,0,3,0,3,1,5,0,3,5,1,1,5,3,0,0,0,0,0,0,0,0,0,0,0,0,0,0,0,0],"split_type":[0,0,0,0,0,0,0,0,0,0,0,0,0,0,0,0,0,0,0,0,0,0,0,0,0,0,0,0,0,0,0],"sum_hessian":[2.15E4,2.0616E4,8.84E2,9.211E3,1.1405E4,3.54E2,5.3E2,9.085E3,1.26E2,9.067E3,2.338E3,3.02E2,5.2E1,1E2,4.3E2,8.872E3,2.13E2,1.11E2,1.5E1,8.289E3,7.78E2,8.1E2,1.528E3,2.67E2,3.5E1,2E0,5E1,9E1,1E1,8E0,4.22E2],"tree_param":{"num_deleted":"0","num_feature":"8","num_nodes":"31","size_leaf_vector":"1"}},{"base_weights":[1.4580446E-3,-2.9720778E-2,1.4769131E-1,-7.473452E-2,4.4200625E-2,1.010428E-1,4.467969E-1,-4.536594E-2,-9.880503E-2,3.592246E-2,3.3122092E-1,8.3687645E-1,8.389325E-2,3.192625E-1,9.2625004E-1,-2.1887224E-3,-6.7326985E-2,-6.033765E-3,-1.2740059E-3,-1.875891E-4,3.6412317E-3,7.789362E-3,4.4891983E-2,5.433729E-2,-6.841074E-3,-2.1292882E-3,7.879973E-3,2.8911306E-2,4.45299E-3,5.2905835E-2,-1.5439517E-2],"categories":[],"categories_nodes":[],"categories_segments":[],"categories_sizes":[],"default_left":[0,0,0,0,0,0,0,0,0,0,0,0,0,0,0,0,0,0,0,0,0,0,0,0,0,0,0,0,0,0,0],"id":36,"left_children":[1,3,5,7,9,11,13,15,17,19,21,23,25,27,29,-1,-1,-1,-1,-1,-1,-1,-1,-1,-1,-1,-1,-1,-1,-1,-1],"loss_changes":[9.754778E1,5.8683395E1,5.241749E1,7.744034E0,1.5847903E1,4.0992725E1,3.070568E1,1.01687565E1,9.655617E0,9.500597E0,1.8448677E1,1.8152687E1,2.9660913E1,2.3913383E1,1.7589958E1,0E0,0E0,0E0,0E0,0E0,0E0,0E0,0E0,0E0,0E0,0E0,0E0,0E0,0E0,0E0,0E0],"parents":[2147483647,0,0,1,1,2,2,3,3,4,4,5,5,6,6,7,7,8,8,9,9,10,10,11,11,12,12,13,13,14,14],"right_children":[2,4,6,8,10,12,14,16,18,20,22,24,26,28,30,-1,-1,-1,-1,-1,-1,-1,-1,-1,-1,-1,-1,-1,-1,-1,-1],"split_conditions":[2.54E0,5E-1,6.7222084E1,-2.4492937E-16,8.382E1,2.5837338E0,3.68333E1,4.5464905E1,1.765531E0,4.858339E0,1.10833E0,5.1E0,-1.8369701E-16,2.82667E1,1E0,-2.1887224E-3,-6.7326985E-2,-6.033765E-3,-1.2740059E-3,-1.875891E-4,3.6412317E-3,7.789362E-3,4.4891983E-2,5.433729E-2,-6.841074E-3,-2.1292882E-3,7.879973E-3,2.8911306E-2,4.45299E-3,5.2905835E-2,-1.5439517E-2],"split_indices":[0,7,3,6,3,0,0,5,1,3,0,1,7,5,7,0,0,0,0,0,0,0,0,0,0,0,0,0,0,0,0],"split_type":[0,0,0,0,0,0,0,0,0,0,0,0,0,0,0,0,0,0,0,0,0,0,0,0,0,0,0,0,0,0,0],"sum_hessian":[2.1393E4,1.7634E4,3.759E3,1.096E4,6.674E3,3.253E3,5.06E2,4.938E3,6.022E3,6.488E3,1.86E2,7.3E1,3.18E3,4.01E2,1.05E2,4.933E3,5E0,4.638E3,1.384E3,3.127E3,3.361E3,1.43E2,4.3E1,5.8E1,1.5E1,1.171E3,2.009E3,1.88E2,2.13E2,9.5E1,1E1],"tree_param":{"num_deleted":"0","num_feature":"8","num_nodes":"31","size_leaf_vector":"1"}},{"base_weights":[1.3142998E-3,-8.728588E-3,4.771411E-1,-6.667017E-2,3.7491053E-2,1.4946574E-1,6.118977E-1,-8.9184515E-2,-1.3679891E-2,2.9146634E-3,1.3318886E-1,5.7973094E-2,8.53144E-1,1.5273119E0,5.4797816E-1,-4.1434476E-3,-1.6760876E-2,5.852955E-3,-2.6713228E-3,-1.5598227E-3,2.8501186E-3,3.4686934E-2,5.927703E-3,2.4437167E-2,-2.922436E-3,7.193162E-2,-1.3243039E-2,9.01913E-2,-1.4850021E-3,1.9014739E-2,4.1201223E-2],"categories":[],"categories_nodes":[],"categories_segments":[],"categories_sizes":[],"default_left":[0,0,0,0,0,0,0,0,0,0,0,0,0,0,0,0,0,0,0,0,0,0,0,0,0,0,0,0,0,0,0],"id":37,"left_children":[1,3,5,7,9,11,13,15,17,19,21,23,25,27,29,-1,-1,-1,-1,-1,-1,-1,-1,-1,-1,-1,-1,-1,-1,-1,-1],"loss_changes":[1.02879486E2,5.6466278E1,1.9558151E1,1.1160873E1,3.8809517E1,8.3845005E0,1.7594604E1,1.0174725E1,1.4509478E1,1.5900074E1,2.5455364E1,5.8962398E0,1.0199721E1,8.664284E0,1.3387985E1,0E0,0E0,0E0,0E0,0E0,0E0,0E0,0E0,0E0,0E0,0E0,0E0,0E0,0E0,0E0,0E0],"parents":[2147483647,0,0,1,1,2,2,3,3,4,4,5,5,6,6,7,7,8,8,9,9,10,10,11,11,12,12,13,13,14,14],"right_children":[2,4,6,8,10,12,14,16,18,20,22,24,26,28,30,-1,-1,-1,-1,-1,-1,-1,-1,-1,-1,-1,-1,-1,-1,-1,-1],"split_conditions":[1.02616E2,-1.8369701E-16,2.062478E1,2E0,3.7706966E0,1.9304E2,1.7809278E1,3.5712514E0,2.69167E0,8.660254E-1,4.36667E0,1.46667E0,1.243333E1,1E0,1.621333E2,-4.1434476E-3,-1.6760876E-2,5.852955E-3,-2.6713228E-3,-1.5598227E-3,2.8501186E-3,3.4686934E-2,5.927703E-3,2.4437167E-2,-2.922436E-3,7.193162E-2,-1.3243039E-2,9.01913E-2,-1.4850021E-3,1.9014739E-2,4.1201223E-2],"split_indices":[3,7,2,5,1,3,5,2,5,7,2,5,2,7,3,0,0,0,0,0,0,0,0,0,0,0,0,0,0,0,0],"split_type":[0,0,0,0,0,0,0,0,0,0,0,0,0,0,0,0,0,0,0,0,0,0,0,0,0,0,0,0,0,0,0],"sum_hessian":[2.1527E4,2.1083E4,4.44E2,9.355E3,1.1728E4,1.3E2,3.14E2,6.565E3,2.79E3,8.616E3,3.112E3,1.16E2,1.4E1,1.9E1,2.95E2,6.402E3,1.63E2,6.5E2,2.14E3,5.284E3,3.332E3,7.8E1,3.034E3,2.4E1,9.2E1,9E0,5E0,1.6E1,3E0,1.85E2,1.1E2],"tree_param":{"num_deleted":"0","num_feature":"8","num_nodes":"31","size_leaf_vector":"1"}},{"base_weights":[2.0982644E-3,-1.0513311E-2,3.064759E-1,-2.4251672E-2,1.2715569E-1,2.565155E-1,7.066191E-1,-4.309754E-2,1.3836734E-2,2.9645893E-1,3.3383794E-2,2.795226E-1,-5.269277E-1,-7.076859E-1,7.940259E-1,-2.03008E-3,-2.2018006E-2,1.7921493E-3,-7.843957E-3,1.4042029E-2,1.8246488E-1,-3.1879356E-3,1.264256E-2,1.1850529E-2,3.543906E-2,3.7691645E-2,-5.2716374E-2,-1.3688497E-2,-7.1931645E-2,1.17958896E-1,2.9422833E-2],"categories":[],"categories_nodes":[],"categories_segments":[],"categories_sizes":[],"default_left":[0,0,0,0,0,0,0,0,0,0,0,0,0,0,0,0,0,0,0,0,0,0,0,0,0,0,0,0,0,0,0],"id":38,"left_children":[1,3,5,7,9,11,13,15,17,19,21,23,25,27,29,-1,-1,-1,-1,-1,-1,-1,-1,-1,-1,-1,-1,-1,-1,-1,-1],"loss_changes":[8.220475E1,3.8894833E1,1.6851341E1,1.3422193E1,2.9614508E1,1.3828072E1,1.2182198E1,1.2385357E1,2.3260317E1,3.3798412E1,2.5642296E1,1.3299507E1,1.5655188E1,1.5091629E0,2.7247227E1,0E0,0E0,0E0,0E0,0E0,0E0,0E0,0E0,0E0,0E0,0E0,0E0,0E0,0E0,0E0,0E0],"parents":[2147483647,0,0,1,1,2,2,3,3,4,4,5,5,6,6,7,7,8,8,9,9,10,10,11,11,12,12,13,13,14,14],"right_children":[2,4,6,8,10,12,14,16,18,20,22,24,26,28,30,-1,-1,-1,-1,-1,-1,-1,-1,-1,-1,-1,-1,-1,-1,-1,-1],"split_conditions":[7.0800995E1,4.7459526E0,3.68333E1,8.579163E0,1.3131665E1,3.07583E1,5.349997E1,5.4807253E0,8.03333E0,1.293333E1,1.5E1,1.9304E2,7.6E1,4.36083E1,5.89E1,-2.03008E-3,-2.2018006E-2,1.7921493E-3,-7.843957E-3,1.4042029E-2,1.8246488E-1,-3.1879356E-3,1.264256E-2,1.1850529E-2,3.543906E-2,3.7691645E-2,-5.2716374E-2,-1.3688497E-2,-7.1931645E-2,1.17958896E-1,2.9422833E-2],"split_indices":[3,0,0,3,2,0,2,1,1,1,0,3,3,0,1,0,0,0,0,0,0,0,0,0,0,0,0,0,0,0,0],"split_type":[0,0,0,0,0,0,0,0,0,0,0,0,0,0,0,0,0,0,0,0,0,0,0,0,0,0,0,0,0,0,0],"sum_hessian":[2.1413E4,2.0562E4,8.51E2,1.8697E4,1.865E3,7.58E2,9.3E1,1.2508E4,6.189E3,6.64E2,1.201E3,7.37E2,2.1E1,5E0,8.8E1,1.2431E4,7.7E1,5.483E3,7.06E2,6.62E2,2E0,8.33E2,3.68E2,6.72E2,6.5E1,6E0,1.5E1,4E0,1E0,9E0,7.9E1],"tree_param":{"num_deleted":"0","num_feature":"8","num_nodes":"31","size_leaf_vector":"1"}},{"base_weights":[-5.903058E-4,-2.8740605E-2,1.309375E-1,-5.5362754E-2,6.937105E-2,1.4928509E0,1.2362736E-1,-1.02048576E-1,-3.0637875E-2,5.668983E-2,3.6536485E-1,1.1791195E0,1.2264985E-1,2.0003158E-3,1.8205948E-1,-5.3015305E-3,2.2892555E-2,-1.6398128E-3,3.094526E-2,3.2735553E-3,-9.925635E-3,9.983692E-3,5.3633243E-2,3.9259654E-2,1.13154106E-1,6.6256453E-4,-8.492767E-2,8.182296E-3,3.396246E-2],"categories":[],"categories_nodes":[],"categories_segments":[],"categories_sizes":[],"default_left":[0,0,0,0,0,0,0,0,0,0,0,0,0,0,0,0,0,0,0,0,0,0,0,0,0,0,0,0,0],"id":39,"left_children":[1,3,5,7,9,11,13,15,17,19,21,23,-1,25,27,-1,-1,-1,-1,-1,-1,-1,-1,-1,-1,-1,-1,-1,-1],"loss_changes":[7.903093E1,4.5927032E1,3.727909E1,1.5960857E1,1.4066412E1,3.132187E0,2.6607971E1,1.072356E1,1.269824E1,8.080608E0,1.7833572E1,5.482071E0,0E0,2.3288095E1,2.3041946E1,0E0,0E0,0E0,0E0,0E0,0E0,0E0,0E0,0E0,0E0,0E0,0E0,0E0,0E0],"parents":[2147483647,0,0,1,1,2,2,3,3,4,4,5,5,6,6,7,7,8,8,9,9,10,10,11,11,13,13,14,14],"right_children":[2,4,6,8,10,12,14,16,18,20,22,24,-1,26,28,-1,-1,-1,-1,-1,-1,-1,-1,-1,-1,-1,-1,-1,-1],"split_conditions":[2.54E0,8.660254E-1,2.5438132E0,-5E-1,8.382E1,8.660254E-1,-1.8369701E-16,5.46333E1,1.397E2,7.861382E0,1.10833E0,1.0335653E1,1.2264985E-1,5.74333E1,4.36083E1,-5.3015305E-3,2.2892555E-2,-1.6398128E-3,3.094526E-2,3.2735553E-3,-9.925635E-3,9.983692E-3,5.3633243E-2,3.9259654E-2,1.13154106E-1,6.6256453E-4,-8.492767E-2,8.182296E-3,3.396246E-2],"split_indices":[0,7,1,7,3,7,7,3,3,1,0,2,0,0,0,0,0,0,0,0,0,0,0,0,0,0,0,0,0],"split_type":[0,0,0,0,0,0,0,0,0,0,0,0,0,0,0,0,0,0,0,0,0,0,0,0,0,0,0,0,0],"sum_hessian":[2.1343E4,1.7581E4,3.762E3,1.3829E4,3.752E3,1.9E1,3.743E3,4.787E3,9.042E3,3.599E3,1.53E2,1.6E1,3E0,1.215E3,2.528E3,4.754E3,3.3E1,9.013E3,2.9E1,3.48E3,1.19E2,1.25E2,2.8E1,1.3E1,3E0,1.208E3,7E0,2.439E3,8.9E1],"tree_param":{"num_deleted":"0","num_feature":"8","num_nodes":"29","size_leaf_vector":"1"}},{"base_weights":[-6.516163E-3,-4.9330875E-2,5.8614466E-2,-5.911831E-2,2.0073096E-1,4.1866608E-2,2.941368E-1,-5.5928905E-2,-7.5230885E-1,8.900067E-2,4.1110352E-1,7.001901E-2,-2.5522372E-2,1.9711606E-1,5.2417946E-1,-4.2533167E-3,-1.4097091E-3,-8.651612E-2,-2.9039025E-2,6.318003E-3,-5.4088812E-2,3.397758E-2,-6.414767E-3,3.0897213E-2,3.1790566E-3,-1.5894928E-3,1.7277814E-2,2.2464456E-2,1.5829811E-3,6.281971E-2,1.4937443E-2],"categories":[],"categories_nodes":[],"categories_segments":[],"categories_sizes":[],"default_left":[0,0,0,0,0,0,0,0,0,0,0,0,0,0,0,0,0,0,0,0,0,0,0,0,0,0,0,0,0,0,0],"id":40,"left_children":[1,3,5,7,9,11,13,15,17,19,21,23,25,27,29,-1,-1,-1,-1,-1,-1,-1,-1,-1,-1,-1,-1,-1,-1,-1,-1],"loss_changes":[5.985073E1,3.1706537E1,3.356717E1,2.7511967E1,1.1433842E1,1.5082325E1,1.2506855E1,1.0023926E1,8.557217E0,1.4133336E1,2.4558485E1,1.973927E1,5.460168E0,1.6633516E1,2.7190277E1,0E0,0E0,0E0,0E0,0E0,0E0,0E0,0E0,0E0,0E0,0E0,0E0,0E0,0E0,0E0,0E0],"parents":[2147483647,0,0,1,1,2,2,3,3,4,4,5,5,6,6,7,7,8,8,9,9,10,10,11,11,12,12,13,13,14,14],"right_children":[2,4,6,8,10,12,14,16,18,20,22,24,26,28,30,-1,-1,-1,-1,-1,-1,-1,-1,-1,-1,-1,-1,-1,-1,-1,-1],"split_conditions":[5E-1,5.2616417E1,2.249997E1,2.9943626E1,2.8132565E1,2E0,6.878802E1,5.33333E-1,3.3951675E1,2.6722868E1,7.8994E1,6.279483E-2,1.1666667E1,4.306664E1,7.8994E1,-4.2533167E-3,-1.4097091E-3,-8.651612E-2,-2.9039025E-2,6.318003E-3,-5.4088812E-2,3.397758E-2,-6.414767E-3,3.0897213E-2,3.1790566E-3,-1.5894928E-3,1.7277814E-2,2.2464456E-2,1.5829811E-3,6.281971E-2,1.4937443E-2],"split_indices":[7,3,1,1,1,4,2,1,2,1,2,1,2,3,2,0,0,0,0,0,0,0,0,0,0,0,0,0,0,0,0],"split_type":[0,0,0,0,0,0,0,0,0,0,0,0,0,0,0,0,0,0,0,0,0,0,0,0,0,0,0,0,0,0,0],"sum_hessian":[2.1461E4,1.2949E4,8.512E3,1.2462E4,4.87E2,7.948E3,5.64E2,1.2406E4,5.6E1,3.19E2,1.68E2,5.606E3,2.342E3,3.98E2,1.66E2,6.049E3,6.357E3,7E0,4.9E1,3.1E2,9E0,1.12E2,5.6E1,6.4E1,5.542E3,2.304E3,3.8E1,1.57E2,2.41E2,3.8E1,1.28E2],"tree_param":{"num_deleted":"0","num_feature":"8","num_nodes":"31","size_leaf_vector":"1"}},{"base_weights":[-2.3534699E-4,-8.334021E-3,3.9733478E-1,-5.1270157E-2,3.3478804E-2,3.1509557E-1,1.0607927E0,-5.2409764E-2,8.6462265E-1,2.5059454E-2,2.737332E-1,2.0659678E0,2.8183842E-1,-2.728625E-1,1.1911993E0,-2.4839542E-3,-2.1644507E-2,-1.0989845E-2,9.1276236E-2,1.8156896E-3,-9.180401E-3,1.8841807E-2,-1.3107424E-2,1.3782866E-1,-5.1941603E-2,-6.366802E-3,1.9869687E-2,-4.158893E-3,-2.5790025E-2,7.690375E-2,3.576943E-2],"categories":[],"categories_nodes":[],"categories_segments":[],"categories_sizes":[],"default_left":[0,0,0,0,0,0,0,0,0,0,0,0,0,0,0,0,0,0,0,0,0,0,0,0,0,0,0,0,0,0,0],"id":41,"left_children":[1,3,5,7,9,11,13,15,17,19,21,23,25,27,29,-1,-1,-1,-1,-1,-1,-1,-1,-1,-1,-1,-1,-1,-1,-1,-1],"loss_changes":[6.935118E1,3.7898304E1,2.312751E1,1.09160595E1,2.1626839E1,2.1777676E1,8.499153E0,1.0786917E1,1.3947517E1,2.427518E1,2.0099636E1,1.7872957E1,1.7923304E1,1.8750483E-1,5.996704E0,0E0,0E0,0E0,0E0,0E0,0E0,0E0,0E0,0E0,0E0,0E0,0E0,0E0,0E0,0E0,0E0],"parents":[2147483647,0,0,1,1,2,2,3,3,4,4,5,5,6,6,7,7,8,8,9,9,10,10,11,11,12,12,13,13,14,14],"right_children":[2,4,6,8,10,12,14,16,18,20,22,24,26,28,30,-1,-1,-1,-1,-1,-1,-1,-1,-1,-1,-1,-1,-1,-1,-1,-1],"split_conditions":[1.8521353E1,5.4378734E0,1.621333E2,5.1414704E0,1.02616E2,1.87E1,2.17E1,5.3576174E0,5.3576174E0,1.7809278E1,9.392625E1,3.1779762E1,3.434805E1,8.660254E-1,1.217E2,-2.4839542E-3,-2.1644507E-2,-1.0989845E-2,9.1276236E-2,1.8156896E-3,-9.180401E-3,1.8841807E-2,-1.3107424E-2,1.3782866E-1,-5.1941603E-2,-6.366802E-3,1.9869687E-2,-4.158893E-3,-2.5790025E-2,7.690375E-2,3.576943E-2],"split_indices":[0,3,3,5,3,5,0,3,3,5,2,2,3,6,2,0,0,0,0,0,0,0,0,0,0,0,0,0,0,0,0],"split_type":[0,0,0,0,0,0,0,0,0,0,0,0,0,0,0,0,0,0,0,0,0,0,0,0,0,0,0,0,0,0,0],"sum_hessian":[2.1537E4,2.1108E4,4.29E2,1.0414E4,1.0694E4,3.83E2,4.6E1,1.0402E4,1.2E1,1.0333E4,3.61E2,6E0,3.77E2,4E0,4.2E1,1.0329E4,7.3E1,6E0,6E0,9.805E3,5.28E2,3.03E2,5.8E1,5E0,1E0,8.3E1,2.94E2,3E0,1E0,2.3E1,1.9E1],"tree_param":{"num_deleted":"0","num_feature":"8","num_nodes":"31","size_leaf_vector":"1"}},{"base_weights":[-3.3750222E-3,-6.891199E-2,4.724125E-2,-6.754415E-2,-1.8761486E0,2.8446004E-2,3.076281E-1,-7.344512E-2,1.9856764E-1,-2.1819312E-2,-1.02168895E-1,5.3927254E-2,-3.3446822E-2,2.1430469E0,2.7504227E-1,-3.539005E-3,-2.8721903E-2,-1.8736705E-3,1.6766082E-2,2.9432932E-2,2.352502E-3,-1.4140611E-3,-1.2535487E-2,1.4824611E-1,-3.2643598E-2,-1.6747223E-2,1.7652802E-2],"categories":[],"categories_nodes":[],"categories_segments":[],"categories_sizes":[],"default_left":[0,0,0,0,0,0,0,0,0,0,0,0,0,0,0,0,0,0,0,0,0,0,0,0,0,0,0],"id":42,"left_children":[1,3,5,7,9,11,13,15,17,-1,-1,19,21,23,25,-1,-1,-1,-1,-1,-1,-1,-1,-1,-1,-1,-1],"loss_changes":[7.083289E1,2.2875385E1,5.8954586E1,1.461697E1,7.936897E-1,1.772533E1,4.7915382E1,1.2106598E1,6.533036E0,0E0,0E0,2.9248587E1,3.6717894E0,3.4106255E1,3.809297E1,0E0,0E0,0E0,0E0,0E0,0E0,0E0,0E0,0E0,0E0,0E0,0E0],"parents":[2147483647,0,0,1,1,2,2,3,3,4,4,5,5,6,6,7,7,8,8,11,11,12,12,13,13,14,14],"right_children":[2,4,6,8,10,12,14,16,18,-1,-1,20,22,24,26,-1,-1,-1,-1,-1,-1,-1,-1,-1,-1,-1,-1],"split_conditions":[-1.8369701E-16,9.341764E1,9.56667E0,5.2616417E1,5.74333E1,2E0,1.1895171E1,2.25E1,4.318E0,-2.1819312E-2,-1.02168895E-1,1.3362935E-1,1.9E1,8.660254E-1,1.4825E1,-3.539005E-3,-2.8721903E-2,-1.8736705E-3,1.6766082E-2,2.9432932E-2,2.352502E-3,-1.4140611E-3,-1.2535487E-2,1.4824611E-1,-3.2643598E-2,-1.6747223E-2,1.7652802E-2],"split_indices":[7,1,0,3,0,4,3,5,1,0,0,5,4,7,1,0,0,0,0,0,0,0,0,0,0,0,0],"split_type":[0,0,0,0,0,0,0,0,0,0,0,0,0,0,0,0,0,0,0,0,0,0,0,0,0,0,0],"sum_hessian":[2.1351E4,9.304E3,1.2047E4,9.298E3,6E0,1.1237E4,8.1E2,9.097E3,2.01E2,1E0,5E0,7.96E3,3.277E3,1.3E1,7.97E2,9.05E3,4.7E1,7.4E1,1.27E2,1E2,7.86E3,3.202E3,7.5E1,1E1,3E0,9E1,7.07E2],"tree_param":{"num_deleted":"0","num_feature":"8","num_nodes":"27","size_leaf_vector":"1"}},{"base_weights":[3.8551225E-3,-2.2431819E-2,1.02510355E-1,6.0689123E-3,-5.2684247E-2,7.862611E-2,3.1136635E-1,3.0568794E-3,6.0032827E-1,-1.00315854E-1,-3.2804713E-2,-1.1981696E-2,1.19600326E-1,3.7621343E-1,-5.8078125E-2,3.1998553E-4,-2.0125229E-2,6.662109E-2,1.5796037E-2,-5.1079346E-3,7.0922256E-2,1.1492032E-2,-2.1550711E-3,-7.144108E-3,1.9177849E-3,2.6041526E-2,4.2955186E-3,5.5286527E-2,1.7520105E-2,2.734946E-2,-1.0955631E-2],"categories":[],"categories_nodes":[],"categories_segments":[],"categories_sizes":[],"default_left":[0,0,0,0,0,0,0,0,0,0,0,0,0,0,0,0,0,0,0,0,0,0,0,0,0,0,0,0,0,0,0],"id":43,"left_children":[1,3,5,7,9,11,13,15,17,19,21,23,25,27,29,-1,-1,-1,-1,-1,-1,-1,-1,-1,-1,-1,-1,-1,-1,-1,-1],"loss_changes":[5.5652878E1,1.4610576E1,2.2497993E1,1.5617083E1,7.780178E0,1.5048534E1,1.11141205E1,1.17743225E1,8.740428E0,6.9180527E0,1.5698029E1,8.327625E0,3.7682384E1,7.031502E0,6.9404225E0,0E0,0E0,0E0,0E0,0E0,0E0,0E0,0E0,0E0,0E0,0E0,0E0,0E0,0E0,0E0,0E0],"parents":[2147483647,0,0,1,1,2,2,3,3,4,4,5,5,6,6,7,7,8,8,9,9,10,10,11,11,12,12,13,13,14,14],"right_children":[2,4,6,8,10,12,14,16,18,20,22,24,26,28,30,-1,-1,-1,-1,-1,-1,-1,-1,-1,-1,-1,-1,-1,-1,-1,-1],"split_conditions":[2.006667E1,1.2246469E-16,1.02616E2,1.275E1,1.27E0,2.53333E0,1E0,9.70417E0,-8.660254E-1,5.2E1,1.433333E0,2.54E1,3.25833E0,1.46667E0,1.12133224E2,3.1998553E-4,-2.0125229E-2,6.662109E-2,1.5796037E-2,-5.1079346E-3,7.0922256E-2,1.1492032E-2,-2.1550711E-3,-7.144108E-3,1.9177849E-3,2.6041526E-2,4.2955186E-3,5.5286527E-2,1.7520105E-2,2.734946E-2,-1.0955631E-2],"split_indices":[3,6,3,5,3,1,4,5,6,4,3,3,5,5,3,0,0,0,0,0,0,0,0,0,0,0,0,0,0,0,0],"split_type":[0,0,0,0,0,0,0,0,0,0,0,0,0,0,0,0,0,0,0,0,0,0,0,0,0,0,0,0,0,0,0],"sum_hessian":[2.1458E4,1.6944E4,4.514E3,8.725E3,8.219E3,4.052E3,4.62E2,8.682E3,4.3E1,2.419E3,5.8E3,1.262E3,2.79E3,3.93E2,6.9E1,8.612E3,7E1,1.1E1,3.2E1,2.417E3,2E0,2.18E2,5.582E3,3.5E2,9.12E2,2.15E2,2.575E3,1.2E1,3.81E2,1.4E1,5.5E1],"tree_param":{"num_deleted":"0","num_feature":"8","num_nodes":"31","size_leaf_vector":"1"}},{"base_weights":[-4.4910307E-4,-2.9711701E-2,9.7521216E-2,-3.3835206E-2,3.9089102E-1,5.754796E-2,1.9323523E-1,-5.9624158E-2,1.9312992E-4,5.81389E-1,1.7269078E-1,9.757962E-2,-1.2496036E-1,4.1784263E-1,1.3422734E-1,-2.890777E-3,-4.271489E-2,-3.473653E-4,2.2908548E-2,1.6320115E-2,7.910678E-2,-6.402537E-3,2.2327973E-2,4.4757593E-3,5.8947135E-2,-9.854825E-3,1.5873687E-2,1.8476738E-2,6.908795E-2,-1.0652491E-2,9.289293E-3],"categories":[],"categories_nodes":[],"categories_segments":[],"categories_sizes":[],"default_left":[0,0,0,0,0,0,0,0,0,0,0,0,0,0,0,0,0,0,0,0,0,0,0,0,0,0,0,0,0,0,0],"id":44,"left_children":[1,3,5,7,9,11,13,15,17,19,21,23,25,27,29,-1,-1,-1,-1,-1,-1,-1,-1,-1,-1,-1,-1,-1,-1,-1,-1],"loss_changes":[6.1328026E1,2.8581558E1,1.8812801E1,1.4315569E1,6.55027E0,2.5379005E1,1.91484E1,1.3288364E1,2.3005495E1,2.1173637E1,6.316821E0,2.4730663E1,2.0009752E1,1.350539E1,2.0612534E1,0E0,0E0,0E0,0E0,0E0,0E0,0E0,0E0,0E0,0E0,0E0,0E0,0E0,0E0,0E0,0E0],"parents":[2147483647,0,0,1,1,2,2,3,3,4,4,5,5,6,6,7,7,8,8,9,9,10,10,11,11,12,12,13,13,14,14],"right_children":[2,4,6,8,10,12,14,16,18,20,22,24,26,28,30,-1,-1,-1,-1,-1,-1,-1,-1,-1,-1,-1,-1,-1,-1,-1,-1],"split_conditions":[8.660254E-1,1.26746E2,8.000007E0,-1.8369701E-16,6.878802E1,4.1354675E0,7.13333E0,6.878802E1,5.75375E1,3.0831663E1,1.217E2,3.9946735E0,3.434805E1,1.52648945E1,1.94E1,-2.890777E-3,-4.271489E-2,-3.473653E-4,2.2908548E-2,1.6320115E-2,7.910678E-2,-6.402537E-3,2.2327973E-2,4.4757593E-3,5.8947135E-2,-9.854825E-3,1.5873687E-2,1.8476738E-2,6.908795E-2,-1.0652491E-2,9.289293E-3],"split_indices":[7,3,2,7,2,2,5,2,2,5,2,2,3,2,3,0,0,0,0,0,0,0,0,0,0,0,0,0,0,0,0],"split_type":[0,0,0,0,0,0,0,0,0,0,0,0,0,0,0,0,0,0,0,0,0,0,0,0,0,0,0,0,0,0,0],"sum_hessian":[2.139E4,1.6471E4,4.919E3,1.6312E4,1.59E2,3.471E3,1.448E3,9.279E3,7.033E3,8.4E1,7.5E1,2.847E3,6.24E2,3E2,1.148E3,9.259E3,2E1,6.926E3,1.07E2,6.8E1,1.6E1,3.6E1,3.9E1,2.827E3,2E1,5.37E2,8.7E1,2.87E2,1.3E1,1.48E2,1E3],"tree_param":{"num_deleted":"0","num_feature":"8","num_nodes":"31","size_leaf_vector":"1"}},{"base_weights":[1.7830228E-3,-1.108862E-2,1.7587624E-1,-3.3409696E-2,6.960647E-2,1.2535098E-1,3.8917863E-1,-3.177208E-2,-1.2489569E0,6.4532466E-2,5.108666E-1,8.58732E-2,3.7102836E-1,2.4245014E0,3.511722E-1,-2.3242538E-3,1.9866861E-3,-6.8959646E-2,-3.9049188E-4,3.3892393E-3,-6.011736E-2,1.1186832E-2,8.041498E-2,5.077858E-3,-2.8788883E-2,-2.311543E-2,1.9730194E-2,2.1154454E-1,-9.5027415E-3,3.8632376E-3,3.4536224E-2],"categories":[],"categories_nodes":[],"categories_segments":[],"categories_sizes":[],"default_left":[0,0,0,0,0,0,0,0,0,0,0,0,0,0,0,0,0,0,0,0,0,0,0,0,0,0,0,0,0,0,0],"id":45,"left_children":[1,3,5,7,9,11,13,15,17,19,21,23,25,27,29,-1,-1,-1,-1,-1,-1,-1,-1,-1,-1,-1,-1,-1,-1,-1,-1],"loss_changes":[4.8010258E1,3.593629E1,1.5847523E1,3.1069395E1,9.64603E0,1.1548504E1,2.0962807E1,1.6422466E1,3.383709E0,1.7695774E1,1.5080353E1,1.0747099E1,3.4240742E0,2.4418633E1,2.5802265E1,0E0,0E0,0E0,0E0,0E0,0E0,0E0,0E0,0E0,0E0,0E0,0E0,0E0,0E0,0E0,0E0],"parents":[2147483647,0,0,1,1,2,2,3,3,4,4,5,5,6,6,7,7,8,8,9,9,10,10,11,11,12,12,13,13,14,14],"right_children":[2,4,6,8,10,12,14,16,18,20,22,24,26,28,30,-1,-1,-1,-1,-1,-1,-1,-1,-1,-1,-1,-1,-1,-1,-1,-1],"split_conditions":[4.91167E1,8.660254E-1,2.01875E1,3.37056E1,2.33765E1,1.397E2,2.15333E1,1.98333E0,4.36083E1,3.826666E1,4.306664E1,9.392625E1,-8.660254E-1,6.290003E1,8.660254E-1,-2.3242538E-3,1.9866861E-3,-6.8959646E-2,-3.9049188E-4,3.3892393E-3,-6.011736E-2,1.1186832E-2,8.041498E-2,5.077858E-3,-2.8788883E-2,-2.311543E-2,1.9730194E-2,2.1154454E-1,-9.5027415E-3,3.8632376E-3,3.4536224E-2],"split_indices":[3,7,0,5,5,3,5,0,0,2,3,2,6,3,6,0,0,0,0,0,0,0,0,0,0,0,0,0,0,0,0],"split_type":[0,0,0,0,0,0,0,0,0,0,0,0,0,0,0,0,0,0,0,0,0,0,0,0,0,0,0,0,0,0,0],"sum_hessian":[2.1423E4,1.9949E4,1.474E3,1.5627E4,4.322E3,1.193E3,2.81E2,1.5607E4,2E1,4.274E3,4.8E1,1.029E3,1.64E2,4E0,2.77E2,1.2944E4,2.663E3,1.8E1,2E0,4.264E3,1E1,3.9E1,9E0,1.006E3,2.3E1,4E0,1.6E2,2E0,2E0,1.54E2,1.23E2],"tree_param":{"num_deleted":"0","num_feature":"8","num_nodes":"31","size_leaf_vector":"1"}},{"base_weights":[7.67093E-3,-5.3122066E-2,5.418585E-2,-5.2309826E-2,-7.7590324E-2,3.606186E-2,2.9875177E-1,-5.5583693E-2,3.61856E-1,1.9422948E-3,7.2741136E-2,1.6522359E0,2.7039656E-1,-2.6337493E-3,-1.45813925E-2,9.785901E-3,4.4881064E-2,-1.5840437E-3,3.7544467E-3,6.4844876E-3,1.0475725E-3,1.08997874E-1,-3.0392397E-2,-1.2429275E-2,1.7462311E-2],"categories":[],"categories_nodes":[],"categories_segments":[],"categories_sizes":[],"default_left":[0,0,0,0,0,0,0,0,0,0,0,0,0,0,0,0,0,0,0,0,0,0,0,0,0],"id":46,"left_children":[1,3,5,7,-1,9,11,13,15,17,19,21,23,-1,-1,-1,-1,-1,-1,-1,-1,-1,-1,-1,-1],"loss_changes":[6.0636166E1,1.1233585E1,5.3835354E1,1.261801E1,0E0,1.415536E1,3.171428E1,6.3142548E0,6.3221197E0,1.4417048E1,1.607419E1,2.1600883E1,3.3724327E1,0E0,0E0,0E0,0E0,0E0,0E0,0E0,0E0,0E0,0E0,0E0,0E0],"parents":[2147483647,0,0,1,1,2,2,3,3,5,5,6,6,7,7,8,8,9,9,10,10,11,11,12,12],"right_children":[2,4,6,8,-1,10,12,14,16,18,20,22,24,-1,-1,-1,-1,-1,-1,-1,-1,-1,-1,-1,-1],"split_conditions":[-1.8369701E-16,5.74333E1,9.56667E0,4.0916553E1,-7.7590324E-2,3E-1,1.1895171E1,1.13E1,1.26746E2,7.874E0,4.46667E0,8.660254E-1,1.72E1,-2.6337493E-3,-1.45813925E-2,9.785901E-3,4.4881064E-2,-1.5840437E-3,3.7544467E-3,6.4844876E-3,1.0475725E-3,1.08997874E-1,-3.0392397E-2,-1.2429275E-2,1.7462311E-2],"split_indices":[7,0,0,2,0,0,3,0,3,3,2,7,2,0,0,0,0,0,0,0,0,0,0,0,0],"split_type":[0,0,0,0,0,0,0,0,0,0,0,0,0,0,0,0,0,0,0,0,0,0,0,0,0],"sum_hessian":[2.1441E4,9.294E3,1.2147E4,9.29E3,4E0,1.131E4,8.37E2,9.218E3,7.2E1,5.86E3,5.45E3,1.6E1,8.21E2,9.107E3,1.11E2,5.6E1,1.6E1,4.015E3,1.845E3,2.595E3,2.855E3,1.3E1,3E0,1.08E2,7.13E2],"tree_param":{"num_deleted":"0","num_feature":"8","num_nodes":"25","size_leaf_vector":"1"}},{"base_weights":[4.3245154E-3,-7.2196E-3,2.2985002E-1,-4.6113763E-2,3.6881782E-2,1.7372184E0,1.9877343E-1,-1.1101056E-2,-8.165067E-2,4.685408E-2,-1.1760642E-1,-5.0372887E-1,1.9996197E0,-2.3777059E-1,2.5795057E-1,-1.2302779E-3,4.8079356E-3,-4.1242815E-3,7.224342E-2,1.2885078E-3,4.8165265E-3,-1.100156E-2,5.9333714E-5,-3.4743764E-2,-3.035903E-3,1.0817822E-1,-2.3784656E-2,-1.7122582E-2,2.1754537E-2,7.567801E-2,1.218166E-2],"categories":[],"categories_nodes":[],"categories_segments":[],"categories_sizes":[],"default_left":[0,0,0,0,0,0,0,0,0,0,0,0,0,0,0,0,0,0,0,0,0,0,0,0,0,0,0,0,0,0,0],"id":47,"left_children":[1,3,5,7,9,11,13,15,17,19,21,23,25,27,29,-1,-1,-1,-1,-1,-1,-1,-1,-1,-1,-1,-1,-1,-1,-1,-1],"loss_changes":[5.592468E1,3.5053577E1,4.865338E1,1.3510332E1,1.4759858E1,1.3355835E1,2.6566437E1,7.927054E0,6.9878693E0,9.382807E0,7.0694942E0,2.1184826E-1,8.739677E0,8.812603E0,1.5882477E1,0E0,0E0,0E0,0E0,0E0,0E0,0E0,0E0,0E0,0E0,0E0,0E0,0E0,0E0,0E0,0E0],"parents":[2147483647,0,0,1,1,2,2,3,3,4,4,5,5,6,6,7,7,8,8,9,9,10,10,11,11,12,12,13,13,14,14],"right_children":[2,4,6,8,10,12,14,16,18,20,22,24,26,28,30,-1,-1,-1,-1,-1,-1,-1,-1,-1,-1,-1,-1,-1,-1,-1,-1],"split_conditions":[9.56667E0,6.123234E-17,9.70417E0,-2.4492937E-16,8E0,-5E-1,-5E-1,2.46667E0,1.9304E2,1.10833E0,8.660254E-1,2.04E1,2.148126E1,4.0764427E1,1.1895171E1,-1.2302779E-3,4.8079356E-3,-4.1242815E-3,7.224342E-2,1.2885078E-3,4.8165265E-3,-1.100156E-2,5.9333714E-5,-3.4743764E-2,-3.035903E-3,1.0817822E-1,-2.3784656E-2,-1.7122582E-2,2.1754537E-2,7.567801E-2,1.218166E-2],"split_indices":[0,7,5,6,4,7,7,0,3,0,7,3,3,5,3,0,0,0,0,0,0,0,0,0,0,0,0,0,0,0,0],"split_type":[0,0,0,0,0,0,0,0,0,0,0,0,0,0,0,0,0,0,0,0,0,0,0,0,0,0,0,0,0,0,0],"sum_hessian":[2.1479E4,2.0434E4,1.045E3,1.0858E4,9.576E3,2E1,1.025E3,5.47E3,5.388E3,8.996E3,5.8E2,2E0,1.8E1,1.22E2,9.03E2,4.859E3,6.11E2,5.386E3,2E0,6.309E3,2.687E3,3.11E2,2.69E2,1E0,1E0,1.7E1,1E0,1.06E2,1.6E1,9E0,8.94E2],"tree_param":{"num_deleted":"0","num_feature":"8","num_nodes":"31","size_leaf_vector":"1"}},{"base_weights":[6.17815E-4,-2.580527E-2,8.751215E-2,-3.1197507E-2,4.827198E-1,7.9442106E-2,5.939753E-1,-4.4223767E-2,3.6140658E-2,-1.2818716E0,6.845258E-1,8.822982E-2,-4.6562582E-1,3.8885865E-1,9.892525E-1,-2.3693824E-3,1.7193435E-2,1.3041126E-2,5.421956E-4,3.992635E-2,-7.256101E-2,4.132779E-2,7.737774E-3,3.6218192E-3,1.9764625E-2,-1.5278153E-2,-4.0651765E-2,2.5455395E-2,-6.0573597E-2,1.281997E-1,2.4610957E-2],"categories":[],"categories_nodes":[],"categories_segments":[],"categories_sizes":[],"default_left":[0,0,0,0,0,0,0,0,0,0,0,0,0,0,0,0,0,0,0,0,0,0,0,0,0,0,0,0,0,0,0],"id":48,"left_children":[1,3,5,7,9,11,13,15,17,19,21,23,25,27,29,-1,-1,-1,-1,-1,-1,-1,-1,-1,-1,-1,-1,-1,-1,-1,-1],"loss_changes":[4.9065834E1,4.4949646E1,2.031923E1,1.4225698E1,6.2127552E1,2.3540325E1,5.9394035E0,1.6700705E1,1.4939672E1,7.5004635E0,1.1534798E1,2.3389957E1,4.0889378E0,1.0816015E1,1.9088127E1,0E0,0E0,0E0,0E0,0E0,0E0,0E0,0E0,0E0,0E0,0E0,0E0,0E0,0E0,0E0,0E0],"parents":[2147483647,0,0,1,1,2,2,3,3,4,4,5,5,6,6,7,7,8,8,9,9,10,10,11,11,12,12,